svm_type c_svc
kernel_type linear
label
rho -2.7330422
total_sv 2
nr_class 2
SV
-3.3670056343472285E-7 0:892.0 1:269.0 2:107.0 3:190.0 4:45.0 5:5.0 6:146.0 7:243.0 8:95.0 9:10.0 10:8.0 11:8.0 12:136.0 13:9.0 14:748.0 15:821.0 16:218.0 17:12.0 18:8.0 19:5.0 22:6.0 23:2.0 24:164.0 25:4.0 26:4.0 27:8.0 28:161.0 29:2.0 30:602.0 31:189.0 32:79.0 33:5.0 34:6.0 35:7.0 36:1.0 38:9.0 39:4.0 40:6.0 44:7.0 46:31.0 47:22.0 48:166.0 49:6.0 50:17.0 51:1.0 54:5.0 55:4.0 56:235.0 57:1.0 58:13.0 59:7.0 60:110.0 62:286.0 63:57.0 64:59.0 65:3.0 67:1.0 68:3.0 70:4.0 72:2.0 76:4.0 78:6.0 79:1.0 80:4.0 88:1.0 94:1.0 96:106.0 97:3.0 98:8.0 99:6.0 100:3.0 102:8.0 103:2.0 104:5.0 107:1.0 108:5.0 109:1.0 110:10.0 111:5.0 112:248.0 113:1.0 114:4.0 116:1.0 118:2.0 120:238.0 122:2.0 123:1.0 124:73.0 126:97.0 127:13.0 128:95.0 129:165.0 130:4.0 131:291.0 133:3.0 134:10.0 135:187.0 136:8.0 137:5.0 139:12.0 140:3.0 141:3.0 142:28.0 143:367.0 144:10.0 145:11.0 146:1.0 147:6.0 150:1.0 152:8.0 153:2.0 155:5.0 156:6.0 157:2.0 158:16.0 159:40.0 160:5.0 161:4.0 163:15.0 164:2.0 167:5.0 172:1.0 174:3.0 175:38.0 176:12.0 177:11.0 178:1.0 179:5.0 183:2.0 184:15.0 185:10.0 186:1.0 187:24.0 188:6.0 189:3.0 190:12.0 191:66.0 192:104.0 193:141.0 194:4.0 195:107.0 196:5.0 198:4.0 199:59.0 200:3.0 201:5.0 203:4.0 204:3.0 205:2.0 206:13.0 207:97.0 208:10.0 209:2.0 216:2.0 217:2.0 219:4.0 220:2.0 222:2.0 223:6.0 224:577.0 225:422.0 226:35.0 227:242.0 228:2.0 229:2.0 230:13.0 231:106.0 232:19.0 233:6.0 234:1.0 235:14.0 236:15.0 237:4.0 238:87.0 239:293.0 240:974.0 241:142.0 242:17.0 243:54.0 244:3.0 246:8.0 247:14.0 248:380.0 249:50.0 250:27.0 251:73.0 252:77.0 253:5.0 254:264.0 255:285.0 0:2967.0 1:59.0 2:169.0 3:104.0 4:40.0 5:2.0 6:121.0 7:113.0 8:325.0 9:6.0 10:6.0 11:6.0 12:204.0 14:1049.0 15:656.0 16:62.0 17:2.0 18:1.0 19:2.0 22:1.0 24:187.0 25:2.0 26:5.0 27:4.0 28:180.0 30:405.0 31:110.0 32:277.0 33:1.0 34:13.0 35:4.0 36:1.0 39:1.0 40:22.0 41:1.0 42:1.0 44:7.0 46:30.0 47:7.0 48:174.0 49:1.0 50:2.0 51:1.0 52:1.0 54:2.0 55:1.0 56:836.0 57:1.0 58:25.0 59:3.0 60:208.0 62:526.0 63:31.0 64:46.0 68:1.0 70:1.0 71:1.0 72:1.0 78:2.0 79:1.0 88:2.0 96:143.0 97:1.0 98:5.0 99:1.0 102:1.0 104:8.0 106:1.0 108:10.0 110:12.0 111:3.0 112:170.0 115:1.0 120:258.0 122:5.0 124:60.0 126:42.0 127:5.0 128:102.0 129:87.0 130:5.0 131:250.0 134:2.0 135:106.0 136:10.0 137:4.0 139:15.0 140:5.0 141:1.0 142:13.0 143:293.0 144:2.0 145:4.0 152:5.0 153:1.0 154:1.0 155:7.0 156:2.0 158:2.0 159:21.0 160:8.0 161:4.0 162:2.0 163:13.0 167:1.0 168:2.0 171:1.0 172:1.0 174:3.0 175:15.0 176:7.0 177:7.0 179:4.0 183:1.0 184:17.0 185:1.0 186:1.0 187:32.0 188:3.0 189:2.0 190:5.0 191:61.0 192:70.0 193:45.0 194:3.0 195:69.0 198:1.0 199:24.0 200:3.0 201:2.0 202:1.0 203:3.0 204:2.0 206:7.0 207:28.0 208:2.0 214:1.0 216:2.0 222:3.0 223:1.0 224:580.0 225:132.0 226:11.0 227:165.0 230:3.0 231:24.0 232:28.0 233:4.0 234:1.0 235:6.0 236:2.0 238:61.0 239:89.0 240:383.0 241:39.0 242:6.0 243:20.0 244:2.0 246:2.0 248:491.0 249:20.0 250:12.0 251:45.0 252:22.0 254:175.0 255:107.0 0:1806.0 1:87.0 2:155.0 3:190.0 4:71.0 5:1.0 6:172.0 7:207.0 8:139.0 9:1.0 10:7.0 11:5.0 12:145.0 13:1.0 14:573.0 15:337.0 16:85.0 17:7.0 18:1.0 19:1.0 20:1.0 22:4.0 23:1.0 24:134.0 25:2.0 26:6.0 27:8.0 28:199.0 30:513.0 31:86.0 32:126.0 33:3.0 34:6.0 35:1.0 36:4.0 37:1.0 38:6.0 39:1.0 40:6.0 42:2.0 44:4.0 46:18.0 47:4.0 48:151.0 49:2.0 50:7.0 51:2.0 52:5.0 54:1.0 55:1.0 56:412.0 57:2.0 58:11.0 59:3.0 60:308.0 61:1.0 62:348.0 63:34.0 64:98.0 65:6.0 68:2.0 70:1.0 72:3.0 76:2.0 88:1.0 94:1.0 96:136.0 97:7.0 98:6.0 99:5.0 100:3.0 104:6.0 106:2.0 107:1.0 108:4.0 110:6.0 111:2.0 112:125.0 115:1.0 116:1.0 120:165.0 122:2.0 124:52.0 126:32.0 128:110.0 129:139.0 130:7.0 131:1044.0 132:2.0 133:1.0 134:1.0 135:601.0 136:8.0 137:6.0 139:24.0 140:5.0 141:3.0 142:20.0 143:375.0 144:4.0 145:3.0 146:1.0 147:1.0 151:1.0 152:6.0 153:1.0 155:9.0 156:3.0 157:1.0 158:13.0 159:52.0 160:7.0 161:5.0 162:1.0 163:23.0 167:4.0 171:2.0 174:1.0 175:9.0 176:7.0 177:9.0 179:16.0 183:2.0 184:17.0 185:3.0 187:38.0 188:7.0 189:1.0 190:22.0 191:127.0 192:139.0 193:192.0 194:7.0 195:508.0 196:1.0 197:2.0 198:10.0 199:109.0 200:4.0 201:2.0 203:14.0 204:5.0 206:6.0 207:62.0 211:1.0 216:3.0 218:1.0 219:5.0 221:1.0 222:3.0 223:10.0 224:492.0 225:438.0 226:23.0 227:344.0 228:3.0 229:1.0 230:7.0 231:48.0 232:10.0 233:12.0 234:1.0 235:16.0 236:9.0 237:2.0 238:42.0 239:137.0 240:190.0 241:76.0 242:4.0 243:49.0 247:5.0 248:233.0 249:39.0 250:8.0 251:118.0 252:36.0 253:8.0 254:138.0 255:171.0 0:2525.0 1:59.0 2:381.0 3:329.0 4:56.0 5:1.0 6:216.0 7:278.0 8:240.0 9:3.0 10:12.0 11:5.0 12:117.0 14:761.0 15:374.0 16:45.0 17:4.0 18:2.0 22:1.0 23:1.0 24:110.0 25:1.0 27:10.0 28:78.0 29:2.0 30:186.0 31:66.0 32:206.0 34:10.0 35:6.0 38:5.0 39:1.0 40:12.0 42:1.0 44:1.0 46:19.0 47:5.0 48:136.0 49:1.0 50:7.0 51:1.0 54:2.0 55:1.0 56:508.0 58:23.0 59:4.0 60:100.0 62:335.0 63:21.0 64:43.0 65:1.0 66:3.0 67:4.0 70:1.0 72:2.0 78:2.0 88:4.0 96:124.0 98:6.0 99:4.0 100:1.0 104:1.0 108:10.0 110:5.0 112:124.0 113:1.0 114:2.0 116:1.0 120:211.0 122:2.0 124:30.0 126:22.0 128:194.0 129:185.0 130:13.0 131:1245.0 132:1.0 133:1.0 134:16.0 135:576.0 136:10.0 137:5.0 138:1.0 139:29.0 140:5.0 141:3.0 142:30.0 143:584.0 144:2.0 145:2.0 147:1.0 152:8.0 155:6.0 156:5.0 158:4.0 159:19.0 160:12.0 161:3.0 162:1.0 163:23.0 167:6.0 175:10.0 176:7.0 177:4.0 178:1.0 179:5.0 184:13.0 185:7.0 186:1.0 187:42.0 188:2.0 190:11.0 191:99.0 192:112.0 193:109.0 194:6.0 195:287.0 198:5.0 199:66.0 200:4.0 201:1.0 203:8.0 206:8.0 207:37.0 208:1.0 216:1.0 217:1.0 223:1.0 224:417.0 225:144.0 226:24.0 227:311.0 228:1.0 230:4.0 231:24.0 232:22.0 233:3.0 234:3.0 235:11.0 236:8.0 237:1.0 238:34.0 239:115.0 240:168.0 241:35.0 242:1.0 243:16.0 246:1.0 247:1.0 248:307.0 249:20.0 250:12.0 251:82.0 252:22.0 253:1.0 254:87.0 255:103.0 
3.3670056343472285E-7 0:744.0 1:148.0 2:79.0 3:155.0 4:112.0 5:1.0 6:163.0 7:284.0 8:52.0 9:8.0 10:7.0 11:14.0 12:151.0 13:4.0 14:736.0 15:669.0 16:114.0 17:14.0 18:9.0 19:3.0 22:5.0 23:1.0 24:117.0 25:3.0 26:14.0 27:7.0 28:239.0 29:1.0 30:748.0 31:221.0 32:58.0 33:4.0 34:3.0 35:5.0 36:1.0 38:5.0 39:3.0 40:4.0 44:9.0 46:19.0 47:16.0 48:175.0 49:4.0 50:6.0 51:5.0 52:2.0 54:3.0 56:262.0 57:5.0 58:14.0 59:16.0 60:182.0 62:320.0 63:62.0 64:97.0 65:3.0 66:6.0 67:2.0 68:8.0 70:4.0 72:4.0 74:1.0 76:3.0 78:4.0 79:1.0 80:5.0 88:2.0 92:1.0 95:1.0 96:152.0 97:1.0 98:10.0 99:1.0 100:2.0 102:2.0 104:11.0 106:1.0 108:10.0 110:14.0 112:249.0 113:1.0 114:3.0 115:2.0 116:1.0 120:297.0 122:10.0 123:4.0 124:69.0 126:81.0 127:6.0 128:65.0 129:137.0 130:1.0 131:248.0 132:5.0 133:1.0 134:2.0 135:319.0 136:12.0 137:5.0 138:2.0 139:21.0 140:5.0 141:3.0 142:23.0 143:362.0 144:9.0 145:9.0 147:5.0 151:1.0 152:3.0 153:3.0 155:14.0 156:5.0 157:4.0 158:10.0 159:75.0 160:8.0 161:19.0 163:15.0 167:8.0 169:2.0 171:3.0 174:1.0 175:21.0 176:6.0 177:18.0 179:18.0 184:20.0 185:10.0 186:2.0 187:37.0 188:8.0 189:3.0 190:17.0 191:133.0 192:132.0 193:187.0 194:1.0 195:166.0 196:7.0 198:9.0 199:88.0 200:4.0 201:7.0 202:1.0 203:8.0 204:4.0 205:1.0 206:17.0 207:79.0 208:2.0 209:1.0 211:1.0 216:1.0 217:2.0 219:3.0 222:2.0 223:5.0 224:524.0 225:445.0 226:17.0 227:272.0 228:4.0 229:1.0 230:21.0 231:69.0 232:25.0 233:9.0 234:1.0 235:8.0 236:23.0 237:3.0 238:62.0 239:180.0 240:874.0 241:176.0 242:9.0 243:72.0 244:1.0 246:5.0 247:5.0 248:355.0 249:76.0 250:23.0 251:136.0 252:84.0 253:7.0 254:185.0 255:283.0 0:1589.0 1:86.0 2:153.0 3:164.0 4:204.0 5:2.0 6:196.0 7:206.0 8:187.0 9:3.0 10:9.0 11:11.0 12:233.0 13:2.0 14:622.0 15:549.0 16:88.0 17:4.0 18:3.0 19:1.0 20:1.0 22:5.0 23:1.0 24:196.0 25:7.0 26:11.0 27:14.0 28:164.0 30:367.0 31:166.0 32:172.0 33:5.0 34:19.0 35:7.0 36:8.0 38:9.0 39:5.0 40:10.0 44:14.0 46:26.0 47:10.0 48:166.0 49:1.0 50:10.0 54:4.0 56:548.0 57:4.0 58:37.0 59:21.0 60:302.0 62:422.0 63:80.0 64:153.0 65:3.0 66:5.0 67:3.0 68:14.0 70:5.0 71:2.0 72:5.0 74:2.0 76:6.0 78:6.0 88:2.0 94:1.0 96:194.0 97:1.0 98:12.0 99:5.0 100:7.0 102:4.0 104:5.0 108:13.0 110:16.0 111:4.0 112:139.0 113:1.0 114:2.0 119:1.0 120:249.0 122:11.0 123:3.0 124:71.0 126:49.0 127:7.0 128:154.0 129:140.0 130:8.0 131:421.0 132:5.0 133:2.0 134:9.0 135:245.0 136:23.0 137:10.0 139:39.0 140:10.0 141:8.0 142:36.0 143:364.0 144:4.0 145:3.0 147:1.0 152:8.0 153:2.0 155:17.0 156:4.0 157:1.0 158:2.0 159:77.0 160:11.0 161:9.0 162:1.0 163:32.0 167:7.0 174:3.0 175:15.0 176:11.0 177:7.0 179:7.0 180:1.0 183:3.0 184:39.0 185:14.0 186:7.0 187:100.0 188:9.0 189:5.0 190:22.0 191:263.0 192:150.0 193:113.0 194:8.0 195:179.0 196:2.0 198:7.0 199:53.0 200:11.0 201:4.0 203:5.0 204:1.0 206:10.0 207:47.0 208:3.0 211:1.0 216:5.0 217:1.0 219:6.0 220:1.0 222:3.0 223:3.0 224:458.0 225:159.0 226:26.0 227:279.0 228:3.0 230:5.0 231:40.0 232:29.0 233:6.0 234:1.0 235:27.0 236:9.0 237:2.0 238:53.0 239:145.0 240:220.0 241:58.0 242:3.0 243:63.0 246:1.0 247:1.0 248:323.0 249:62.0 250:28.0 251:210.0 252:40.0 253:2.0 254:147.0 255:275.0 0:983.0 1:85.0 2:77.0 3:167.0 4:290.0 5:4.0 6:246.0 7:236.0 8:65.0 9:6.0 10:8.0 11:12.0 12:191.0 13:1.0 14:377.0 15:254.0 16:101.0 17:5.0 18:6.0 19:2.0 20:5.0 22:5.0 24:125.0 25:4.0 26:14.0 27:9.0 28:285.0 29:1.0 30:427.0 31:123.0 32:83.0 33:5.0 34:8.0 35:7.0 36:6.0 38:9.0 39:8.0 40:3.0 43:1.0 44:8.0 45:1.0 46:14.0 47:7.0 48:108.0 49:5.0 50:12.0 51:7.0 52:5.0 54:7.0 55:3.0 56:365.0 57:2.0 58:31.0 59:21.0 60:444.0 62:377.0 63:123.0 64:240.0 65:6.0 66:20.0 67:10.0 68:36.0 70:14.0 71:2.0 72:10.0 74:2.0 75:1.0 76:7.0 78:8.0 79:1.0 80:2.0 81:1.0 88:4.0 91:1.0 92:1.0 94:1.0 96:133.0 97:6.0 98:1.0 99:9.0 100:6.0 102:5.0 103:3.0 104:10.0 106:1.0 108:15.0 110:9.0 111:2.0 112:114.0 113:1.0 114:7.0 115:1.0 116:1.0 118:3.0 120:209.0 121:1.0 122:16.0 123:4.0 124:101.0 126:67.0 127:5.0 128:66.0 129:119.0 130:4.0 131:594.0 132:11.0 133:7.0 134:11.0 135:558.0 136:3.0 137:6.0 139:51.0 140:9.0 141:3.0 142:15.0 143:402.0 144:3.0 145:1.0 147:5.0 151:1.0 152:11.0 153:1.0 154:2.0 155:34.0 156:11.0 157:1.0 158:11.0 159:138.0 160:4.0 161:5.0 163:25.0 164:1.0 167:9.0 168:1.0 169:1.0 171:3.0 172:2.0 174:2.0 175:22.0 176:2.0 177:19.0 179:20.0 182:1.0 183:6.0 184:29.0 185:15.0 186:5.0 187:138.0 188:14.0 189:3.0 190:31.0 191:349.0 192:155.0 193:211.0 194:15.0 195:641.0 196:3.0 197:3.0 198:17.0 199:162.0 200:7.0 201:6.0 202:1.0 203:22.0 204:4.0 205:3.0 206:11.0 207:94.0 208:3.0 211:1.0 216:3.0 217:1.0 219:9.0 220:2.0 222:5.0 223:13.0 224:207.0 225:303.0 226:8.0 227:308.0 228:3.0 230:10.0 231:53.0 232:8.0 233:8.0 234:2.0 235:21.0 236:8.0 237:2.0 238:28.0 239:132.0 240:110.0 241:77.0 242:3.0 243:84.0 244:2.0 246:2.0 247:6.0 248:203.0 249:73.0 250:14.0 251:259.0 252:65.0 253:4.0 254:117.0 255:394.0 0:1556.0 1:120.0 2:188.0 3:205.0 4:238.0 5:1.0 6:263.0 7:266.0 8:124.0 9:4.0 10:11.0 11:5.0 12:240.0 13:1.0 14:390.0 15:260.0 16:98.0 17:5.0 18:7.0 19:2.0 20:1.0 22:2.0 24:168.0 25:3.0 26:17.0 27:10.0 28:169.0 29:1.0 30:218.0 31:80.0 32:118.0 33:6.0 34:20.0 35:14.0 36:6.0 38:14.0 39:8.0 40:7.0 42:3.0 44:13.0 46:21.0 47:7.0 48:158.0 49:2.0 50:17.0 51:5.0 52:2.0 54:5.0 55:1.0 56:422.0 57:2.0 58:34.0 59:23.0 60:219.0 62:309.0 63:83.0 64:152.0 66:14.0 67:10.0 68:12.0 70:8.0 72:7.0 74:1.0 76:3.0 78:5.0 80:2.0 88:2.0 92:2.0 96:166.0 97:3.0 98:11.0 99:7.0 100:6.0 102:2.0 103:1.0 104:6.0 106:1.0 108:12.0 110:15.0 111:2.0 112:107.0 114:6.0 115:1.0 116:1.0 120:216.0 122:16.0 123:3.0 124:63.0 125:1.0 126:53.0 127:2.0 128:151.0 129:181.0 130:21.0 131:678.0 132:7.0 133:2.0 134:19.0 135:458.0 136:23.0 137:11.0 139:55.0 140:6.0 141:1.0 142:26.0 143:477.0 144:1.0 145:6.0 147:7.0 151:1.0 152:9.0 153:8.0 154:2.0 155:23.0 156:5.0 157:1.0 158:7.0 159:114.0 160:10.0 161:13.0 163:40.0 167:15.0 171:3.0 172:1.0 173:1.0 174:3.0 175:30.0 176:5.0 177:12.0 178:2.0 179:15.0 182:1.0 183:4.0 184:37.0 185:15.0 186:7.0 187:153.0 188:10.0 189:5.0 190:21.0 191:332.0 192:196.0 193:137.0 194:10.0 195:334.0 196:5.0 197:1.0 198:14.0 199:109.0 200:11.0 201:5.0 203:16.0 204:4.0 206:9.0 207:59.0 208:3.0 209:1.0 216:6.0 219:4.0 222:3.0 223:6.0 224:362.0 225:177.0 226:24.0 227:324.0 228:2.0 229:1.0 230:11.0 231:63.0 232:20.0 233:11.0 234:2.0 235:32.0 236:7.0 237:1.0 238:48.0 239:165.0 240:171.0 241:55.0 242:11.0 243:57.0 244:2.0 246:1.0 247:5.0 248:266.0 249:55.0 250:29.0 251:263.0 252:41.0 253:1.0 254:140.0 255:283.0 
