svm_type c_svc
kernel_type linear
label
rho -0.10482069
total_sv 2
nr_class 2
SV
-4.299475309231163E-8 0:90.0 1:126.0 2:2.0 3:26.0 4:54.0 5:11.0 6:23.0 7:520.0 8:4.0 9:5.0 12:28.0 13:8.0 14:101.0 15:1138.0 16:118.0 17:73.0 19:8.0 20:7.0 22:3.0 23:25.0 24:36.0 25:10.0 27:1.0 28:251.0 29:30.0 30:496.0 31:1286.0 32:1.0 39:1.0 46:1.0 47:1.0 48:35.0 49:1.0 51:1.0 52:1.0 54:1.0 55:1.0 56:30.0 57:5.0 60:126.0 61:4.0 62:112.0 63:102.0 64:39.0 65:6.0 66:1.0 68:18.0 69:1.0 70:2.0 71:15.0 76:5.0 77:1.0 78:1.0 79:5.0 80:14.0 81:3.0 88:2.0 89:1.0 92:9.0 94:12.0 95:7.0 96:13.0 97:3.0 99:1.0 100:2.0 103:5.0 110:2.0 111:2.0 112:282.0 113:13.0 114:1.0 115:3.0 116:9.0 117:1.0 118:4.0 119:4.0 120:226.0 121:3.0 123:1.0 124:491.0 125:6.0 126:131.0 127:135.0 128:4.0 129:35.0 131:59.0 132:1.0 133:1.0 135:187.0 137:2.0 141:2.0 143:201.0 144:2.0 145:6.0 147:2.0 151:1.0 153:1.0 157:5.0 159:138.0 161:1.0 167:2.0 176:1.0 177:1.0 187:1.0 188:1.0 189:1.0 191:30.0 192:22.0 193:245.0 195:108.0 196:2.0 197:15.0 199:522.0 204:2.0 205:2.0 207:179.0 208:4.0 209:26.0 211:3.0 215:8.0 216:1.0 217:5.0 220:1.0 221:8.0 222:2.0 223:240.0 224:44.0 225:344.0 227:108.0 229:4.0 230:3.0 231:85.0 233:1.0 235:1.0 236:1.0 238:1.0 239:86.0 240:455.0 241:638.0 242:1.0 243:96.0 244:3.0 245:3.0 246:5.0 247:164.0 248:156.0 249:86.0 251:24.0 252:110.0 253:134.0 254:69.0 255:2371.0 0:41.0 1:94.0 3:14.0 4:29.0 5:5.0 6:7.0 7:223.0 9:1.0 12:14.0 13:1.0 14:37.0 15:398.0 16:80.0 17:77.0 19:3.0 20:4.0 21:2.0 23:16.0 24:15.0 25:5.0 28:228.0 29:18.0 30:325.0 31:736.0 32:2.0 33:1.0 47:1.0 48:18.0 49:6.0 52:1.0 55:4.0 56:24.0 57:2.0 60:133.0 61:1.0 62:82.0 63:105.0 64:39.0 65:6.0 67:1.0 68:8.0 71:4.0 72:1.0 79:4.0 80:9.0 81:1.0 84:1.0 88:1.0 92:6.0 93:1.0 94:4.0 95:9.0 96:18.0 97:2.0 103:3.0 111:2.0 112:442.0 113:17.0 114:2.0 115:1.0 116:11.0 119:6.0 120:202.0 121:3.0 124:585.0 125:13.0 126:124.0 127:120.0 128:1.0 129:23.0 131:16.0 132:1.0 133:2.0 135:88.0 141:1.0 143:95.0 144:1.0 145:8.0 147:5.0 151:2.0 153:1.0 156:1.0 157:3.0 159:122.0 183:1.0 189:1.0 191:10.0 192:17.0 193:398.0 195:99.0 197:7.0 199:430.0 205:1.0 206:2.0 207:93.0 208:7.0 209:27.0 211:3.0 215:6.0 216:1.0 217:2.0 219:1.0 220:1.0 221:1.0 223:125.0 224:81.0 225:519.0 227:65.0 228:3.0 229:5.0 230:1.0 231:99.0 237:1.0 238:2.0 239:44.0 240:1157.0 241:2304.0 243:145.0 244:6.0 245:18.0 246:3.0 247:281.0 248:213.0 249:249.0 251:22.0 252:197.0 253:252.0 254:44.0 255:1859.0 0:36.0 1:38.0 2:2.0 3:10.0 4:77.0 5:5.0 6:19.0 7:239.0 12:25.0 13:1.0 14:66.0 15:339.0 16:78.0 17:24.0 19:1.0 20:11.0 21:1.0 22:2.0 23:12.0 24:34.0 25:10.0 28:699.0 29:29.0 30:1012.0 31:1870.0 33:1.0 48:19.0 49:2.0 52:3.0 54:2.0 55:1.0 56:92.0 57:3.0 60:616.0 61:8.0 62:357.0 63:342.0 64:33.0 65:4.0 68:24.0 69:1.0 70:2.0 71:13.0 76:4.0 78:4.0 79:10.0 80:5.0 88:4.0 92:16.0 93:1.0 94:6.0 95:25.0 96:16.0 97:1.0 102:1.0 103:2.0 108:1.0 111:1.0 112:233.0 113:10.0 114:1.0 115:2.0 116:6.0 118:2.0 119:5.0 120:708.0 121:6.0 122:1.0 124:1138.0 125:16.0 126:269.0 127:393.0 128:1.0 129:14.0 131:33.0 133:1.0 135:131.0 143:101.0 145:1.0 147:3.0 151:2.0 159:140.0 188:1.0 189:1.0 191:23.0 192:4.0 193:154.0 195:232.0 196:1.0 197:6.0 199:302.0 201:1.0 204:1.0 205:2.0 207:97.0 208:1.0 209:5.0 211:2.0 215:8.0 217:1.0 220:1.0 221:4.0 222:1.0 223:157.0 224:23.0 225:166.0 227:143.0 228:2.0 229:1.0 231:73.0 232:1.0 237:1.0 239:27.0 240:174.0 241:261.0 243:77.0 244:1.0 245:5.0 247:62.0 248:174.0 249:77.0 250:1.0 251:13.0 252:104.0 253:95.0 254:35.0 255:1574.0 0:46.0 1:79.0 2:1.0 3:30.0 4:39.0 5:5.0 6:10.0 7:301.0 8:2.0 12:18.0 13:4.0 14:24.0 15:249.0 16:57.0 17:32.0 20:7.0 21:1.0 23:8.0 24:32.0 25:2.0 28:240.0 29:9.0 30:180.0 31:343.0 32:1.0 38:1.0 48:27.0 49:2.0 52:1.0 53:1.0 54:1.0 55:2.0 56:135.0 57:2.0 60:920.0 61:5.0 62:197.0 63:111.0 64:64.0 65:5.0 68:40.0 70:1.0 71:14.0 76:4.0 78:5.0 79:2.0 80:7.0 81:2.0 87:2.0 88:1.0 92:9.0 93:1.0 94:1.0 95:1.0 96:17.0 97:2.0 100:4.0 103:3.0 110:1.0 112:347.0 113:7.0 115:1.0 116:16.0 118:3.0 119:7.0 120:1137.0 121:5.0 122:3.0 124:1444.0 125:7.0 126:157.0 127:89.0 128:1.0 129:16.0 131:61.0 132:1.0 133:4.0 135:654.0 141:1.0 143:279.0 144:1.0 145:2.0 147:5.0 151:2.0 155:1.0 156:2.0 157:1.0 159:125.0 161:1.0 175:1.0 179:1.0 183:1.0 187:1.0 189:1.0 191:28.0 192:20.0 193:254.0 194:1.0 195:338.0 196:4.0 197:12.0 199:969.0 201:1.0 203:1.0 205:1.0 206:2.0 207:172.0 208:2.0 209:9.0 211:7.0 213:2.0 215:12.0 216:1.0 217:3.0 219:1.0 221:4.0 222:1.0 223:108.0 224:58.0 225:328.0 227:160.0 228:2.0 229:5.0 231:184.0 235:1.0 238:1.0 239:51.0 240:478.0 241:717.0 243:148.0 244:6.0 245:11.0 247:151.0 248:265.0 249:128.0 251:29.0 252:170.0 253:112.0 254:56.0 255:979.0 
4.299475309231163E-8 0:621.0 1:84.0 2:5.0 3:63.0 4:875.0 5:17.0 6:162.0 7:195.0 8:8.0 9:1.0 12:150.0 13:4.0 14:223.0 15:308.0 16:75.0 17:29.0 18:3.0 19:20.0 20:19.0 22:4.0 23:11.0 24:35.0 25:21.0 26:4.0 27:21.0 28:141.0 29:8.0 30:190.0 31:346.0 32:6.0 33:3.0 36:2.0 39:1.0 40:1.0 44:1.0 46:2.0 47:3.0 48:40.0 49:13.0 50:1.0 51:2.0 52:1.0 53:1.0 54:3.0 55:1.0 56:51.0 57:24.0 58:1.0 59:40.0 60:139.0 61:8.0 62:91.0 63:209.0 64:814.0 65:19.0 66:2.0 67:3.0 68:603.0 69:3.0 70:57.0 71:20.0 72:1.0 73:1.0 76:50.0 77:2.0 78:34.0 79:9.0 80:15.0 81:1.0 84:7.0 86:1.0 88:7.0 92:17.0 93:1.0 94:11.0 95:6.0 96:118.0 97:1.0 99:1.0 100:43.0 102:2.0 103:4.0 104:1.0 108:20.0 109:1.0 110:7.0 111:5.0 112:161.0 113:5.0 114:1.0 115:1.0 116:27.0 118:2.0 119:2.0 120:134.0 121:10.0 122:1.0 123:2.0 124:194.0 125:1.0 126:50.0 127:27.0 128:2.0 129:38.0 131:81.0 132:2.0 133:6.0 135:141.0 139:3.0 141:2.0 143:121.0 144:1.0 145:8.0 147:27.0 149:1.0 153:6.0 155:33.0 156:2.0 157:1.0 159:236.0 163:3.0 167:2.0 172:1.0 175:3.0 176:2.0 177:8.0 179:29.0 181:1.0 183:9.0 184:2.0 185:25.0 187:200.0 188:4.0 189:5.0 190:2.0 191:891.0 192:114.0 193:179.0 194:2.0 195:199.0 196:54.0 197:28.0 198:24.0 199:214.0 201:3.0 203:1.0 204:2.0 205:3.0 206:8.0 207:71.0 208:4.0 209:7.0 211:8.0 215:2.0 217:1.0 218:1.0 219:10.0 220:3.0 221:3.0 222:3.0 223:39.0 224:164.0 225:168.0 226:1.0 227:123.0 228:20.0 229:9.0 230:6.0 231:59.0 236:10.0 237:2.0 238:9.0 239:48.0 240:208.0 241:256.0 243:196.0 244:4.0 245:5.0 247:35.0 248:105.0 249:161.0 250:3.0 251:761.0 252:45.0 253:33.0 254:53.0 255:1299.0 0:640.0 1:45.0 2:5.0 3:39.0 4:945.0 5:12.0 6:83.0 7:114.0 8:1.0 11:4.0 12:97.0 13:2.0 14:43.0 15:48.0 16:49.0 17:8.0 19:4.0 20:18.0 21:2.0 22:1.0 23:6.0 24:27.0 25:8.0 27:10.0 28:92.0 29:3.0 30:34.0 31:82.0 32:7.0 35:1.0 36:6.0 38:1.0 44:2.0 48:19.0 49:7.0 52:15.0 55:3.0 56:75.0 57:16.0 58:1.0 59:24.0 60:189.0 61:10.0 62:58.0 63:114.0 64:1356.0 65:15.0 66:5.0 67:16.0 68:888.0 69:3.0 70:47.0 71:31.0 72:1.0 76:34.0 78:8.0 79:5.0 80:26.0 81:1.0 84:5.0 88:4.0 91:1.0 92:25.0 94:3.0 95:2.0 96:162.0 97:3.0 99:1.0 100:62.0 101:1.0 102:4.0 103:5.0 104:1.0 108:22.0 110:3.0 111:1.0 112:182.0 113:5.0 115:1.0 116:27.0 118:1.0 120:190.0 121:14.0 123:3.0 124:221.0 125:4.0 126:34.0 127:21.0 128:3.0 129:32.0 131:68.0 132:2.0 133:6.0 135:138.0 139:8.0 143:62.0 145:4.0 147:26.0 151:5.0 152:1.0 153:3.0 155:23.0 157:2.0 159:113.0 160:1.0 161:1.0 162:1.0 163:9.0 164:1.0 167:4.0 171:1.0 175:2.0 177:10.0 179:19.0 183:9.0 184:12.0 185:38.0 187:307.0 188:4.0 189:10.0 190:5.0 191:932.0 192:144.0 193:183.0 194:2.0 195:222.0 196:53.0 197:21.0 198:16.0 199:242.0 202:1.0 203:7.0 204:5.0 205:2.0 206:2.0 207:42.0 208:2.0 209:4.0 211:12.0 215:2.0 216:2.0 217:1.0 219:10.0 220:2.0 221:2.0 222:2.0 223:27.0 224:121.0 225:77.0 227:80.0 228:16.0 229:7.0 230:8.0 231:41.0 232:1.0 235:3.0 236:4.0 237:2.0 238:6.0 239:38.0 240:89.0 241:150.0 242:2.0 243:247.0 244:3.0 245:1.0 246:2.0 247:29.0 248:110.0 249:201.0 250:2.0 251:1357.0 252:53.0 253:32.0 254:45.0 255:1561.0 0:1243.0 1:74.0 2:4.0 3:60.0 4:1088.0 5:8.0 6:57.0 7:66.0 8:2.0 11:2.0 12:73.0 14:18.0 15:23.0 16:84.0 17:9.0 18:2.0 19:12.0 20:21.0 22:1.0 24:33.0 25:6.0 26:1.0 27:7.0 28:125.0 29:2.0 30:39.0 31:45.0 32:5.0 35:1.0 36:11.0 38:1.0 40:1.0 44:7.0 46:1.0 48:61.0 49:6.0 50:1.0 51:4.0 52:21.0 53:1.0 56:162.0 57:62.0 58:2.0 59:33.0 60:310.0 61:16.0 62:71.0 63:111.0 64:922.0 65:17.0 66:10.0 67:14.0 68:1194.0 69:5.0 70:79.0 71:29.0 72:2.0 74:2.0 76:44.0 77:2.0 78:8.0 79:8.0 80:7.0 84:4.0 88:6.0 92:9.0 93:1.0 94:3.0 95:1.0 96:48.0 100:77.0 102:1.0 108:42.0 110:6.0 111:1.0 112:68.0 113:4.0 114:1.0 115:1.0 116:14.0 118:2.0 119:1.0 120:123.0 121:3.0 122:3.0 123:5.0 124:271.0 126:48.0 127:15.0 128:1.0 129:21.0 131:92.0 132:1.0 133:3.0 134:1.0 135:72.0 139:8.0 140:1.0 141:3.0 143:41.0 145:5.0 147:35.0 151:5.0 153:3.0 155:56.0 157:1.0 159:80.0 163:2.0 167:1.0 174:1.0 175:2.0 176:4.0 177:2.0 179:26.0 180:1.0 183:1.0 184:4.0 185:61.0 186:1.0 187:783.0 188:9.0 189:17.0 190:8.0 191:1116.0 192:54.0 193:60.0 194:4.0 195:169.0 196:28.0 197:6.0 198:37.0 199:167.0 201:1.0 203:9.0 204:1.0 205:1.0 206:14.0 207:67.0 208:1.0 209:3.0 211:22.0 215:3.0 216:2.0 219:18.0 221:1.0 222:2.0 223:29.0 224:15.0 225:23.0 226:1.0 227:38.0 228:6.0 229:1.0 230:6.0 231:28.0 234:1.0 235:2.0 236:3.0 238:6.0 239:44.0 240:23.0 241:37.0 242:2.0 243:75.0 245:2.0 247:13.0 248:49.0 249:72.0 251:887.0 252:67.0 253:24.0 254:68.0 255:1818.0 0:991.0 1:68.0 2:8.0 3:40.0 4:1013.0 5:8.0 6:65.0 7:92.0 8:1.0 12:77.0 13:2.0 14:13.0 15:17.0 16:77.0 17:12.0 19:5.0 20:23.0 22:1.0 24:24.0 25:7.0 26:1.0 27:4.0 28:70.0 29:1.0 30:12.0 31:31.0 32:7.0 33:2.0 36:10.0 40:1.0 44:5.0 46:1.0 47:1.0 48:57.0 49:8.0 51:1.0 52:18.0 54:1.0 55:2.0 56:143.0 57:41.0 58:3.0 59:30.0 60:295.0 61:15.0 62:38.0 63:93.0 64:1200.0 65:33.0 66:11.0 67:21.0 68:1022.0 69:4.0 70:81.0 71:29.0 72:1.0 75:1.0 76:42.0 78:5.0 79:6.0 80:13.0 81:1.0 83:2.0 84:6.0 86:2.0 88:3.0 91:1.0 92:12.0 94:1.0 95:1.0 96:102.0 97:2.0 100:87.0 102:3.0 103:2.0 108:34.0 110:3.0 111:2.0 112:110.0 113:5.0 115:1.0 116:36.0 118:1.0 120:149.0 121:6.0 122:1.0 123:3.0 124:270.0 125:1.0 126:34.0 127:18.0 128:4.0 129:25.0 131:110.0 132:2.0 133:6.0 135:127.0 139:10.0 143:44.0 145:8.0 147:39.0 151:5.0 153:3.0 154:1.0 155:66.0 158:1.0 159:92.0 161:1.0 163:2.0 167:2.0 175:3.0 176:2.0 177:11.0 179:26.0 181:1.0 183:1.0 184:12.0 185:69.0 186:2.0 187:551.0 188:8.0 189:17.0 190:6.0 191:963.0 192:96.0 193:87.0 194:8.0 195:276.0 196:53.0 197:13.0 198:24.0 199:220.0 203:7.0 204:1.0 206:6.0 207:71.0 208:2.0 209:1.0 211:18.0 214:1.0 215:3.0 217:3.0 219:16.0 221:1.0 222:2.0 223:38.0 224:22.0 225:22.0 226:2.0 227:62.0 228:11.0 229:2.0 230:6.0 231:40.0 235:8.0 236:8.0 238:6.0 239:48.0 240:31.0 241:41.0 243:115.0 244:9.0 245:1.0 247:12.0 248:72.0 249:131.0 250:4.0 251:1165.0 252:78.0 253:38.0 254:45.0 255:1740.0 
