svm_type c_svc
kernel_type linear
label
rho 2.7330422
total_sv 2
nr_class 2
SV
-3.3670056343472285E-7 0:283.0 1:185.0 2:7.0 3:84.0 4:136.0 5:23.0 6:76.0 7:355.0 8:5.0 9:5.0 11:1.0 12:72.0 13:9.0 14:176.0 15:874.0 16:180.0 17:62.0 18:3.0 19:23.0 20:8.0 21:1.0 22:9.0 23:25.0 24:69.0 25:21.0 26:1.0 27:4.0 28:272.0 29:17.0 30:445.0 31:524.0 32:5.0 33:2.0 36:3.0 38:2.0 39:1.0 44:1.0 46:1.0 47:2.0 48:79.0 49:17.0 50:1.0 51:4.0 52:8.0 53:1.0 54:7.0 55:4.0 56:88.0 57:9.0 59:7.0 60:166.0 61:1.0 62:187.0 63:132.0 64:133.0 65:17.0 66:3.0 67:8.0 68:37.0 69:2.0 70:10.0 71:20.0 76:18.0 78:18.0 79:6.0 80:21.0 81:1.0 84:3.0 86:2.0 88:8.0 92:15.0 94:19.0 95:8.0 96:75.0 97:10.0 98:4.0 99:5.0 100:14.0 102:3.0 103:3.0 104:1.0 108:5.0 110:9.0 111:9.0 112:362.0 113:23.0 114:3.0 115:5.0 116:21.0 117:2.0 118:5.0 119:12.0 120:319.0 121:2.0 122:1.0 123:5.0 124:248.0 125:1.0 126:137.0 127:65.0 128:6.0 129:81.0 131:69.0 132:4.0 133:10.0 135:297.0 139:1.0 140:2.0 141:3.0 142:1.0 143:249.0 145:14.0 147:10.0 149:1.0 151:11.0 153:2.0 155:2.0 156:1.0 157:10.0 158:1.0 159:152.0 160:1.0 163:1.0 167:2.0 175:5.0 176:1.0 177:4.0 179:3.0 181:1.0 183:4.0 185:4.0 187:8.0 188:2.0 189:6.0 190:3.0 191:97.0 192:62.0 193:320.0 195:182.0 196:16.0 197:14.0 198:5.0 199:262.0 201:3.0 203:2.0 204:5.0 205:6.0 206:4.0 207:175.0 208:16.0 209:19.0 211:9.0 215:4.0 216:3.0 217:5.0 219:1.0 220:5.0 221:3.0 222:4.0 223:58.0 224:221.0 225:748.0 226:1.0 227:239.0 228:7.0 229:14.0 230:3.0 231:117.0 232:1.0 233:5.0 236:3.0 237:9.0 238:14.0 239:114.0 240:669.0 241:736.0 242:4.0 243:151.0 244:14.0 245:7.0 246:8.0 247:52.0 248:284.0 249:163.0 250:1.0 251:112.0 252:155.0 253:79.0 254:148.0 255:744.0 0:275.0 1:147.0 2:2.0 3:40.0 4:210.0 5:28.0 6:62.0 7:323.0 8:1.0 9:1.0 12:63.0 13:3.0 14:58.0 15:220.0 16:145.0 17:53.0 18:2.0 19:9.0 20:27.0 21:1.0 22:6.0 23:29.0 24:40.0 25:5.0 27:3.0 28:279.0 29:26.0 30:159.0 31:458.0 32:3.0 33:3.0 35:1.0 36:6.0 38:1.0 39:5.0 44:1.0 47:3.0 48:47.0 49:10.0 51:1.0 52:5.0 54:4.0 55:11.0 56:53.0 57:7.0 59:2.0 60:179.0 61:8.0 62:113.0 63:150.0 64:263.0 65:22.0 66:5.0 67:9.0 68:100.0 69:7.0 70:14.0 71:39.0 72:3.0 75:1.0 76:7.0 78:7.0 79:11.0 80:15.0 81:3.0 88:7.0 92:32.0 93:1.0 94:9.0 95:11.0 96:77.0 97:2.0 98:1.0 99:4.0 100:17.0 102:2.0 103:8.0 108:1.0 110:3.0 111:4.0 112:364.0 113:36.0 114:8.0 115:10.0 116:39.0 118:10.0 119:23.0 120:245.0 121:9.0 122:2.0 123:5.0 124:421.0 125:8.0 126:140.0 127:154.0 128:7.0 129:49.0 131:71.0 132:3.0 133:11.0 135:249.0 136:1.0 141:2.0 142:1.0 143:139.0 144:4.0 145:16.0 147:13.0 151:5.0 153:4.0 155:7.0 156:5.0 157:12.0 158:1.0 159:194.0 161:1.0 167:2.0 177:6.0 179:6.0 181:2.0 183:5.0 184:2.0 185:5.0 187:14.0 188:3.0 189:5.0 190:3.0 191:153.0 192:80.0 193:422.0 195:302.0 196:21.0 197:37.0 198:4.0 199:548.0 201:4.0 205:10.0 206:1.0 207:166.0 208:10.0 209:26.0 211:14.0 215:10.0 216:5.0 217:9.0 219:8.0 220:7.0 221:19.0 222:5.0 223:172.0 224:166.0 225:367.0 227:164.0 228:14.0 229:11.0 230:7.0 231:196.0 232:1.0 233:5.0 235:1.0 236:1.0 237:3.0 238:4.0 239:88.0 240:549.0 241:622.0 242:2.0 243:233.0 244:11.0 245:9.0 246:3.0 247:187.0 248:206.0 249:196.0 250:2.0 251:204.0 252:164.0 253:153.0 254:86.0 255:1589.0 0:394.0 1:117.0 2:4.0 3:65.0 4:259.0 5:14.0 6:73.0 7:203.0 8:6.0 9:2.0 11:2.0 12:84.0 13:3.0 14:77.0 15:110.0 16:132.0 17:28.0 18:2.0 19:8.0 20:21.0 21:2.0 22:8.0 23:8.0 24:53.0 25:10.0 27:3.0 28:308.0 29:8.0 30:303.0 31:207.0 32:13.0 33:5.0 35:2.0 36:9.0 38:1.0 39:3.0 44:1.0 47:3.0 48:94.0 49:11.0 50:3.0 51:4.0 52:22.0 53:1.0 54:6.0 55:7.0 56:162.0 57:17.0 58:3.0 59:3.0 60:641.0 61:15.0 62:211.0 63:155.0 64:349.0 65:31.0 66:3.0 67:14.0 68:138.0 69:5.0 70:15.0 71:29.0 72:6.0 73:1.0 76:20.0 78:19.0 79:2.0 80:22.0 81:2.0 83:2.0 84:3.0 86:1.0 87:1.0 88:9.0 91:1.0 92:25.0 94:5.0 95:4.0 96:138.0 97:11.0 98:1.0 99:11.0 100:34.0 101:2.0 102:1.0 103:11.0 104:1.0 108:5.0 110:1.0 111:3.0 112:402.0 113:15.0 114:3.0 115:9.0 116:51.0 118:6.0 119:3.0 120:558.0 121:11.0 122:7.0 123:11.0 124:594.0 125:4.0 126:119.0 127:66.0 128:5.0 129:67.0 131:101.0 132:4.0 133:16.0 134:1.0 135:209.0 137:3.0 139:1.0 140:1.0 141:7.0 142:1.0 143:114.0 144:2.0 145:9.0 147:15.0 149:1.0 151:10.0 152:3.0 153:5.0 155:6.0 156:9.0 157:1.0 158:6.0 159:133.0 161:1.0 163:1.0 164:1.0 167:4.0 174:1.0 175:2.0 176:1.0 177:8.0 179:7.0 180:1.0 181:2.0 183:10.0 184:2.0 185:14.0 187:36.0 188:10.0 189:20.0 190:6.0 191:240.0 192:123.0 193:377.0 195:444.0 196:21.0 197:31.0 198:2.0 199:365.0 200:3.0 201:7.0 203:5.0 204:7.0 205:12.0 206:5.0 207:108.0 208:7.0 209:14.0 210:1.0 211:8.0 212:1.0 215:3.0 216:8.0 217:9.0 219:6.0 220:7.0 221:8.0 222:5.0 223:83.0 224:123.0 225:427.0 226:1.0 227:285.0 228:9.0 229:14.0 230:4.0 231:125.0 233:5.0 235:5.0 236:2.0 237:6.0 238:5.0 239:101.0 240:254.0 241:377.0 242:1.0 243:191.0 244:12.0 245:8.0 246:6.0 247:65.0 248:236.0 249:246.0 250:4.0 251:290.0 252:167.0 253:77.0 254:85.0 255:983.0 0:283.0 1:140.0 2:1.0 3:41.0 4:263.0 5:29.0 6:55.0 7:266.0 8:5.0 9:1.0 11:2.0 12:57.0 13:11.0 14:55.0 15:171.0 16:165.0 17:48.0 18:1.0 19:7.0 20:32.0 21:2.0 22:11.0 23:20.0 24:63.0 25:11.0 26:1.0 27:2.0 28:324.0 29:24.0 30:177.0 31:362.0 32:6.0 33:3.0 36:4.0 39:6.0 46:1.0 47:3.0 48:59.0 49:9.0 51:4.0 52:16.0 54:5.0 55:11.0 56:109.0 57:14.0 58:1.0 59:5.0 60:334.0 61:10.0 62:137.0 63:196.0 64:332.0 65:21.0 66:5.0 67:10.0 68:153.0 69:7.0 70:15.0 71:37.0 72:4.0 73:1.0 76:15.0 77:2.0 78:12.0 79:5.0 80:30.0 81:3.0 82:1.0 83:1.0 84:3.0 88:15.0 92:40.0 94:13.0 95:10.0 96:114.0 97:7.0 98:1.0 99:5.0 100:23.0 101:2.0 102:8.0 103:9.0 104:1.0 108:7.0 110:6.0 111:1.0 112:477.0 113:26.0 114:1.0 115:6.0 116:55.0 118:11.0 119:23.0 120:458.0 121:19.0 122:2.0 123:7.0 124:678.0 125:21.0 126:181.0 127:151.0 128:2.0 129:53.0 130:1.0 131:63.0 132:3.0 133:16.0 135:216.0 139:1.0 140:1.0 141:6.0 143:107.0 144:2.0 145:15.0 147:12.0 149:1.0 151:6.0 152:1.0 153:2.0 155:6.0 156:7.0 157:11.0 158:3.0 159:166.0 163:2.0 167:2.0 175:2.0 177:5.0 179:3.0 181:1.0 183:7.0 185:8.0 187:12.0 188:10.0 189:14.0 191:152.0 192:83.0 193:309.0 195:219.0 196:23.0 197:34.0 198:2.0 199:422.0 200:1.0 201:5.0 203:2.0 204:5.0 205:17.0 206:2.0 207:158.0 208:7.0 209:21.0 211:13.0 213:3.0 215:7.0 216:8.0 217:14.0 219:6.0 220:14.0 221:20.0 222:6.0 223:118.0 224:80.0 225:218.0 226:1.0 227:169.0 228:10.0 229:17.0 230:3.0 231:168.0 233:2.0 235:1.0 236:2.0 237:7.0 238:5.0 239:98.0 240:260.0 241:390.0 242:1.0 243:240.0 244:5.0 245:11.0 246:4.0 247:124.0 248:266.0 249:263.0 250:1.0 251:238.0 252:205.0 253:188.0 254:120.0 255:1556.0 
3.3670056343472285E-7 0:285.0 1:264.0 2:5.0 3:77.0 4:73.0 5:27.0 6:50.0 7:380.0 8:14.0 9:8.0 11:3.0 12:54.0 13:17.0 14:142.0 15:974.0 16:293.0 17:87.0 18:4.0 19:15.0 20:14.0 21:1.0 22:6.0 23:19.0 24:106.0 25:13.0 26:2.0 27:2.0 28:242.0 29:35.0 30:422.0 31:577.0 32:6.0 33:2.0 35:2.0 36:4.0 38:2.0 39:2.0 46:2.0 47:10.0 48:97.0 49:13.0 50:2.0 51:3.0 52:4.0 54:5.0 55:3.0 56:59.0 57:4.0 59:5.0 60:107.0 61:4.0 62:141.0 63:104.0 64:66.0 65:12.0 66:3.0 67:6.0 68:24.0 69:1.0 70:10.0 71:15.0 72:2.0 76:5.0 77:1.0 78:11.0 79:12.0 80:38.0 81:3.0 83:1.0 88:5.0 91:2.0 92:15.0 94:4.0 95:5.0 96:40.0 97:16.0 98:2.0 99:6.0 100:5.0 102:2.0 103:8.0 105:1.0 108:6.0 109:1.0 110:11.0 111:10.0 112:367.0 113:28.0 114:3.0 115:3.0 116:12.0 118:5.0 119:8.0 120:187.0 121:10.0 122:3.0 124:291.0 125:4.0 126:165.0 127:95.0 128:13.0 129:97.0 131:73.0 132:1.0 133:2.0 135:238.0 137:2.0 139:1.0 141:4.0 142:1.0 143:248.0 144:5.0 145:10.0 146:1.0 147:5.0 148:1.0 151:5.0 152:2.0 153:8.0 155:3.0 156:6.0 157:8.0 158:3.0 159:106.0 161:1.0 167:1.0 175:4.0 176:1.0 177:6.0 179:4.0 183:2.0 185:4.0 187:3.0 188:1.0 190:3.0 191:59.0 192:57.0 193:286.0 195:110.0 196:7.0 197:13.0 198:1.0 199:235.0 200:4.0 201:5.0 204:1.0 205:17.0 206:6.0 207:166.0 208:22.0 209:31.0 211:7.0 215:6.0 216:4.0 217:9.0 219:1.0 220:7.0 221:6.0 222:5.0 223:79.0 224:189.0 225:602.0 226:2.0 227:161.0 228:8.0 229:4.0 230:4.0 231:164.0 232:2.0 233:6.0 236:5.0 237:8.0 238:12.0 239:218.0 240:821.0 241:748.0 242:9.0 243:136.0 244:8.0 245:8.0 246:10.0 247:95.0 248:243.0 249:146.0 250:5.0 251:45.0 252:190.0 253:107.0 254:269.0 255:892.0 0:107.0 1:175.0 3:22.0 4:45.0 5:12.0 6:20.0 7:491.0 9:2.0 11:2.0 12:20.0 13:6.0 14:39.0 15:383.0 16:89.0 17:61.0 19:2.0 20:6.0 21:1.0 22:4.0 23:28.0 24:24.0 25:3.0 28:165.0 29:11.0 30:132.0 31:580.0 32:1.0 33:3.0 39:2.0 41:1.0 47:2.0 48:28.0 49:7.0 51:2.0 52:3.0 53:1.0 54:2.0 55:3.0 56:24.0 57:1.0 60:69.0 61:3.0 62:45.0 63:70.0 64:61.0 65:5.0 66:2.0 67:3.0 68:32.0 69:1.0 70:1.0 71:17.0 72:1.0 76:4.0 78:7.0 79:7.0 80:15.0 81:3.0 83:1.0 84:1.0 87:2.0 88:1.0 92:13.0 93:2.0 94:4.0 95:8.0 96:21.0 97:2.0 99:2.0 100:7.0 101:1.0 102:1.0 103:5.0 110:4.0 111:2.0 112:293.0 113:13.0 114:1.0 115:5.0 116:15.0 118:4.0 119:10.0 120:106.0 121:2.0 124:250.0 125:5.0 126:87.0 127:102.0 128:5.0 129:42.0 131:60.0 133:5.0 135:258.0 140:1.0 143:170.0 144:3.0 145:12.0 147:10.0 149:1.0 151:8.0 153:1.0 156:1.0 157:5.0 158:1.0 159:143.0 167:2.0 176:1.0 177:2.0 183:1.0 184:1.0 185:1.0 187:1.0 191:46.0 192:31.0 193:526.0 195:208.0 196:3.0 197:25.0 198:1.0 199:836.0 200:1.0 201:2.0 203:1.0 204:1.0 205:2.0 206:1.0 207:174.0 208:7.0 209:30.0 211:7.0 213:1.0 214:1.0 215:22.0 216:1.0 219:1.0 220:4.0 221:13.0 222:1.0 223:277.0 224:110.0 225:405.0 227:180.0 228:4.0 229:5.0 230:2.0 231:187.0 233:1.0 236:2.0 237:1.0 238:2.0 239:62.0 240:656.0 241:1049.0 243:204.0 244:6.0 245:6.0 246:6.0 247:325.0 248:113.0 249:121.0 250:2.0 251:40.0 252:104.0 253:169.0 254:59.0 255:2967.0 0:171.0 1:138.0 2:8.0 3:36.0 4:118.0 5:8.0 6:39.0 7:233.0 8:5.0 12:49.0 13:4.0 14:76.0 15:190.0 16:137.0 17:42.0 18:2.0 19:9.0 20:16.0 21:1.0 22:12.0 23:10.0 24:48.0 25:7.0 26:1.0 27:3.0 28:344.0 29:23.0 30:438.0 31:492.0 32:10.0 33:3.0 34:1.0 36:5.0 37:1.0 39:3.0 44:1.0 48:62.0 49:6.0 51:5.0 52:14.0 54:2.0 55:4.0 56:109.0 57:10.0 58:2.0 59:1.0 60:508.0 61:7.0 62:192.0 63:139.0 64:127.0 65:22.0 66:1.0 67:7.0 68:38.0 70:3.0 71:17.0 72:2.0 76:16.0 78:9.0 79:7.0 80:9.0 81:1.0 84:2.0 88:4.0 92:23.0 93:1.0 94:5.0 95:7.0 96:52.0 97:13.0 98:1.0 99:3.0 100:9.0 102:1.0 103:6.0 104:1.0 108:1.0 109:1.0 110:3.0 111:4.0 112:375.0 113:20.0 114:3.0 115:5.0 116:24.0 118:6.0 119:8.0 120:601.0 121:1.0 122:1.0 123:2.0 124:1044.0 125:7.0 126:139.0 127:110.0 129:32.0 131:52.0 133:2.0 135:165.0 139:1.0 140:1.0 143:125.0 144:2.0 145:6.0 147:4.0 148:1.0 149:2.0 151:6.0 155:3.0 156:5.0 157:6.0 158:7.0 159:136.0 161:1.0 167:1.0 179:2.0 183:3.0 185:1.0 187:2.0 190:6.0 191:98.0 192:34.0 193:348.0 194:1.0 195:308.0 196:3.0 197:11.0 198:2.0 199:412.0 200:1.0 201:1.0 203:5.0 204:2.0 205:7.0 206:2.0 207:151.0 208:4.0 209:18.0 211:4.0 213:2.0 215:6.0 216:1.0 217:6.0 218:1.0 219:4.0 220:1.0 221:6.0 222:3.0 223:126.0 224:86.0 225:513.0 227:199.0 228:8.0 229:6.0 230:2.0 231:134.0 232:1.0 233:4.0 235:1.0 236:1.0 237:1.0 238:7.0 239:85.0 240:337.0 241:573.0 242:1.0 243:145.0 244:5.0 245:7.0 246:1.0 247:139.0 248:207.0 249:172.0 250:1.0 251:71.0 252:190.0 253:155.0 254:87.0 255:1806.0 0:103.0 1:87.0 2:1.0 3:22.0 4:82.0 5:12.0 6:20.0 7:307.0 8:1.0 9:1.0 12:16.0 13:1.0 14:35.0 15:168.0 16:115.0 17:34.0 18:1.0 19:8.0 20:11.0 21:3.0 22:3.0 23:22.0 24:24.0 25:4.0 27:1.0 28:311.0 29:24.0 30:144.0 31:417.0 32:1.0 38:1.0 39:1.0 47:1.0 48:37.0 49:8.0 52:8.0 54:1.0 55:4.0 56:66.0 57:5.0 60:287.0 61:6.0 62:109.0 63:112.0 64:99.0 65:11.0 67:2.0 68:42.0 69:1.0 70:7.0 71:13.0 76:5.0 77:1.0 78:4.0 79:7.0 80:10.0 88:6.0 92:23.0 93:1.0 94:3.0 95:12.0 96:19.0 97:4.0 99:5.0 100:6.0 103:8.0 108:1.0 110:2.0 111:2.0 112:584.0 113:30.0 114:3.0 115:5.0 116:29.0 117:1.0 118:5.0 119:10.0 120:576.0 121:16.0 122:1.0 123:1.0 124:1245.0 125:13.0 126:185.0 127:194.0 129:22.0 131:30.0 133:2.0 135:211.0 139:1.0 141:2.0 142:1.0 143:124.0 145:5.0 147:10.0 151:1.0 155:1.0 156:4.0 157:6.0 159:124.0 167:4.0 177:2.0 183:2.0 185:1.0 188:4.0 189:3.0 190:1.0 191:43.0 192:21.0 193:335.0 195:100.0 196:4.0 197:23.0 199:508.0 200:1.0 201:2.0 204:1.0 205:7.0 206:1.0 207:136.0 208:5.0 209:19.0 211:1.0 213:1.0 215:12.0 216:1.0 217:5.0 220:6.0 221:10.0 223:206.0 224:66.0 225:186.0 226:2.0 227:78.0 228:10.0 230:1.0 231:110.0 232:1.0 233:1.0 237:2.0 238:4.0 239:45.0 240:374.0 241:761.0 243:117.0 244:5.0 245:12.0 246:3.0 247:240.0 248:278.0 249:216.0 250:1.0 251:56.0 252:329.0 253:381.0 254:59.0 255:2525.0 
