svm_type c_svc
kernel_type linear
label
rho 2.6403627
total_sv 7
nr_class 2
SV
1.698924701702307E-7 0:80.0 1:111.0 2:2.0 3:35.0 4:79.0 5:11.0 6:22.0 7:524.0 9:1.0 12:15.0 13:1.0 14:146.0 15:1309.0 16:82.0 17:62.0 19:5.0 20:7.0 21:3.0 22:2.0 23:25.0 24:25.0 25:5.0 28:249.0 29:16.0 30:407.0 31:1215.0 32:1.0 39:1.0 48:20.0 49:7.0 52:1.0 54:1.0 56:19.0 57:8.0 60:120.0 62:91.0 63:90.0 64:75.0 65:9.0 67:2.0 68:34.0 69:3.0 70:4.0 71:15.0 76:4.0 78:6.0 79:9.0 80:9.0 81:1.0 83:1.0 84:2.0 87:1.0 88:5.0 92:15.0 93:1.0 94:3.0 95:19.0 96:16.0 97:1.0 100:3.0 103:2.0 110:2.0 111:2.0 112:348.0 113:23.0 114:1.0 115:3.0 116:11.0 117:1.0 118:1.0 119:5.0 120:204.0 121:5.0 123:4.0 124:324.0 125:5.0 126:99.0 127:127.0 128:1.0 129:31.0 131:30.0 133:2.0 135:270.0 137:1.0 141:1.0 142:1.0 143:294.0 144:1.0 145:3.0 147:8.0 149:1.0 151:3.0 156:1.0 157:2.0 159:172.0 175:1.0 177:1.0 183:1.0 185:1.0 191:37.0 192:29.0 193:368.0 195:153.0 196:3.0 197:21.0 199:456.0 204:1.0 205:5.0 206:2.0 207:156.0 208:3.0 209:32.0 211:4.0 212:1.0 215:11.0 216:1.0 217:3.0 220:2.0 221:11.0 222:2.0 223:169.0 224:89.0 225:712.0 227:172.0 228:4.0 229:5.0 230:1.0 231:120.0 237:4.0 238:3.0 239:53.0 240:760.0 241:1163.0 243:130.0 244:6.0 245:16.0 246:1.0 247:129.0 248:180.0 249:113.0 251:35.0 252:136.0 253:109.0 254:44.0 255:972.0 0:61.0 1:88.0 2:1.0 3:21.0 4:60.0 5:2.0 6:9.0 7:351.0 12:5.0 13:2.0 14:33.0 15:287.0 16:68.0 17:54.0 19:2.0 20:9.0 21:3.0 23:17.0 24:15.0 25:4.0 28:233.0 29:20.0 30:346.0 31:821.0 33:1.0 47:1.0 48:8.0 49:3.0 52:1.0 55:3.0 56:23.0 57:1.0 60:130.0 61:2.0 62:99.0 63:89.0 64:75.0 65:7.0 67:2.0 68:35.0 69:1.0 70:3.0 71:24.0 76:1.0 77:1.0 78:2.0 79:5.0 80:8.0 81:1.0 88:1.0 89:1.0 92:13.0 94:8.0 95:12.0 96:16.0 97:2.0 99:1.0 100:2.0 103:5.0 111:1.0 112:224.0 113:13.0 114:1.0 115:3.0 116:25.0 118:4.0 119:4.0 120:113.0 121:3.0 124:372.0 125:6.0 126:69.0 127:129.0 129:32.0 131:40.0 132:2.0 133:2.0 135:213.0 143:115.0 144:1.0 145:3.0 147:5.0 151:5.0 157:6.0 159:124.0 177:1.0 183:1.0 187:2.0 191:24.0 192:31.0 193:608.0 195:439.0 196:3.0 197:28.0 199:1070.0 201:2.0 205:2.0 207:174.0 208:5.0 209:16.0 211:4.0 213:2.0 215:17.0 216:3.0 217:1.0 220:1.0 221:2.0 223:252.0 224:68.0 225:857.0 227:362.0 228:4.0 229:9.0 230:1.0 231:263.0 233:1.0 237:1.0 239:38.0 240:384.0 241:1108.0 243:254.0 244:8.0 245:11.0 246:1.0 247:267.0 248:85.0 249:102.0 251:31.0 252:101.0 253:161.0 254:35.0 255:2118.0 0:57.0 1:71.0 3:19.0 4:109.0 5:11.0 6:22.0 7:372.0 8:3.0 9:1.0 12:31.0 13:1.0 14:70.0 15:379.0 16:91.0 17:51.0 19:4.0 20:11.0 21:7.0 22:1.0 23:22.0 24:19.0 25:7.0 28:606.0 29:30.0 30:699.0 31:1376.0 39:1.0 48:21.0 49:3.0 51:1.0 52:1.0 53:1.0 54:1.0 55:1.0 56:42.0 57:4.0 58:1.0 59:2.0 60:303.0 61:9.0 62:217.0 63:246.0 64:86.0 65:6.0 67:3.0 68:56.0 69:2.0 70:3.0 71:21.0 76:9.0 78:3.0 79:3.0 80:6.0 81:1.0 84:3.0 87:1.0 88:2.0 89:2.0 92:31.0 94:5.0 95:22.0 96:21.0 97:2.0 100:3.0 103:2.0 108:1.0 112:297.0 113:19.0 114:1.0 115:2.0 116:19.0 118:1.0 119:12.0 120:353.0 121:4.0 122:1.0 123:1.0 124:621.0 125:12.0 126:132.0 127:239.0 129:21.0 131:37.0 132:1.0 133:5.0 135:251.0 143:114.0 145:3.0 147:3.0 151:4.0 156:1.0 157:2.0 159:151.0 177:1.0 179:1.0 183:2.0 187:3.0 188:2.0 190:1.0 191:46.0 192:12.0 193:375.0 195:353.0 196:5.0 197:14.0 199:816.0 201:1.0 205:3.0 206:1.0 207:126.0 208:3.0 209:21.0 211:8.0 215:12.0 217:2.0 219:1.0 220:1.0 221:8.0 222:1.0 223:194.0 224:42.0 225:407.0 227:177.0 228:6.0 229:2.0 231:141.0 239:17.0 240:178.0 241:670.0 243:118.0 244:5.0 245:13.0 247:163.0 248:94.0 249:110.0 251:39.0 252:82.0 253:134.0 254:25.0 255:1611.0 0:66.0 1:73.0 2:1.0 3:15.0 4:59.0 5:15.0 6:21.0 7:267.0 8:1.0 9:2.0 12:20.0 13:4.0 14:48.0 15:385.0 16:73.0 17:39.0 19:4.0 20:6.0 21:2.0 22:1.0 23:15.0 24:21.0 25:5.0 27:1.0 28:202.0 29:14.0 30:222.0 31:521.0 32:3.0 33:1.0 36:2.0 37:1.0 38:1.0 45:1.0 47:1.0 48:32.0 49:4.0 51:2.0 52:2.0 55:1.0 56:85.0 57:4.0 59:2.0 60:223.0 61:2.0 62:107.0 63:104.0 64:97.0 65:4.0 66:1.0 67:4.0 68:48.0 70:5.0 71:13.0 76:4.0 78:1.0 79:6.0 80:17.0 84:1.0 88:2.0 92:10.0 94:1.0 95:5.0 96:40.0 97:2.0 99:2.0 100:4.0 103:3.0 104:1.0 111:1.0 112:608.0 113:18.0 114:2.0 115:2.0 116:21.0 118:4.0 119:8.0 120:1143.0 121:4.0 122:1.0 123:3.0 124:774.0 125:8.0 126:104.0 127:118.0 128:2.0 129:24.0 131:47.0 133:7.0 134:1.0 135:393.0 143:204.0 145:3.0 147:2.0 149:1.0 151:5.0 157:5.0 159:102.0 167:1.0 175:2.0 183:3.0 184:1.0 185:2.0 188:1.0 189:1.0 191:35.0 192:32.0 193:390.0 195:265.0 196:5.0 197:17.0 199:497.0 201:1.0 205:3.0 207:99.0 208:2.0 209:29.0 211:4.0 213:1.0 215:8.0 217:4.0 219:1.0 220:3.0 221:4.0 222:1.0 223:104.0 224:89.0 225:451.0 227:216.0 228:5.0 229:7.0 231:162.0 232:1.0 236:1.0 237:1.0 238:2.0 239:41.0 240:756.0 241:1076.0 242:1.0 243:191.0 244:7.0 245:16.0 246:2.0 247:177.0 248:446.0 249:226.0 251:36.0 252:218.0 253:210.0 254:33.0 255:1235.0 
-4.3213443272052093E-7 0:144.0 1:118.0 2:2.0 3:54.0 4:98.0 5:18.0 6:51.0 7:509.0 8:2.0 9:3.0 11:1.0 12:26.0 13:6.0 14:150.0 15:1262.0 16:73.0 17:40.0 18:2.0 19:11.0 20:17.0 22:4.0 23:22.0 24:26.0 25:5.0 26:1.0 27:4.0 28:192.0 29:19.0 30:495.0 31:737.0 32:3.0 33:1.0 38:1.0 39:1.0 45:1.0 47:2.0 48:38.0 49:9.0 52:9.0 53:1.0 54:3.0 55:10.0 56:37.0 57:6.0 59:2.0 60:160.0 61:4.0 62:135.0 63:106.0 64:81.0 65:15.0 66:1.0 67:14.0 68:25.0 69:2.0 70:4.0 71:19.0 72:2.0 76:3.0 78:8.0 79:7.0 80:24.0 81:1.0 88:1.0 92:10.0 94:8.0 95:6.0 96:31.0 97:4.0 99:3.0 100:6.0 102:1.0 103:4.0 110:1.0 111:1.0 112:309.0 113:16.0 115:10.0 116:12.0 118:7.0 119:14.0 120:390.0 122:1.0 123:3.0 124:249.0 125:4.0 126:93.0 127:71.0 128:3.0 129:53.0 131:114.0 132:2.0 133:8.0 134:1.0 135:612.0 137:1.0 140:2.0 141:3.0 143:390.0 144:2.0 145:8.0 147:7.0 151:10.0 153:2.0 155:1.0 156:1.0 157:1.0 158:2.0 159:123.0 167:3.0 175:1.0 177:4.0 183:6.0 185:1.0 187:2.0 188:2.0 189:5.0 190:1.0 191:58.0 192:56.0 193:413.0 195:514.0 196:9.0 197:14.0 198:3.0 199:599.0 201:1.0 204:2.0 205:1.0 206:1.0 207:160.0 208:2.0 209:22.0 211:15.0 215:5.0 216:4.0 217:9.0 219:5.0 220:4.0 221:10.0 222:1.0 223:79.0 224:91.0 225:565.0 227:265.0 228:3.0 229:6.0 230:2.0 231:171.0 235:1.0 236:1.0 237:2.0 238:2.0 239:89.0 240:630.0 241:621.0 242:1.0 243:152.0 244:9.0 245:5.0 246:4.0 247:111.0 248:216.0 249:128.0 250:1.0 251:57.0 252:109.0 253:87.0 254:54.0 255:633.0 0:121.0 1:177.0 3:25.0 4:122.0 5:9.0 6:23.0 7:317.0 8:1.0 12:20.0 13:4.0 14:32.0 15:177.0 16:145.0 17:87.0 18:4.0 19:7.0 20:16.0 21:2.0 22:5.0 23:28.0 24:26.0 25:7.0 27:3.0 28:250.0 29:34.0 30:156.0 31:482.0 32:2.0 33:1.0 38:1.0 39:3.0 48:16.0 49:5.0 50:1.0 51:1.0 52:6.0 54:1.0 55:9.0 56:25.0 57:8.0 59:1.0 60:111.0 61:2.0 62:61.0 63:129.0 64:146.0 65:26.0 66:1.0 67:3.0 68:64.0 69:2.0 70:7.0 71:26.0 72:1.0 73:1.0 76:2.0 78:7.0 79:4.0 80:13.0 84:2.0 87:3.0 88:3.0 92:28.0 94:7.0 95:14.0 96:44.0 97:3.0 99:3.0 100:9.0 103:9.0 108:2.0 110:2.0 111:1.0 112:362.0 113:33.0 114:5.0 115:7.0 116:32.0 117:1.0 118:2.0 119:23.0 120:144.0 121:7.0 123:1.0 124:386.0 125:14.0 126:105.0 127:186.0 128:1.0 129:45.0 131:42.0 132:1.0 133:6.0 135:149.0 139:1.0 141:3.0 142:1.0 143:90.0 144:3.0 145:12.0 147:7.0 151:14.0 156:3.0 157:7.0 159:143.0 161:1.0 167:1.0 179:2.0 183:4.0 184:1.0 185:1.0 189:2.0 190:1.0 191:51.0 192:32.0 193:534.0 194:1.0 195:238.0 196:5.0 197:31.0 198:3.0 199:562.0 200:1.0 201:4.0 203:1.0 204:2.0 205:4.0 207:159.0 208:7.0 209:45.0 211:8.0 212:2.0 213:1.0 215:10.0 216:3.0 217:8.0 220:7.0 221:21.0 222:2.0 223:228.0 224:133.0 225:810.0 226:1.0 227:245.0 228:12.0 229:15.0 230:1.0 231:192.0 236:2.0 237:4.0 238:3.0 239:112.0 240:526.0 241:1042.0 243:226.0 244:4.0 245:14.0 246:4.0 247:270.0 248:133.0 249:195.0 250:1.0 251:85.0 252:159.0 253:219.0 254:69.0 255:2180.0 0:307.0 1:64.0 2:2.0 3:23.0 4:401.0 5:20.0 6:49.0 7:155.0 8:2.0 9:2.0 11:1.0 12:97.0 13:5.0 14:114.0 15:273.0 16:90.0 17:37.0 18:3.0 19:8.0 20:20.0 21:2.0 22:7.0 23:16.0 24:46.0 25:8.0 26:1.0 27:4.0 28:424.0 29:13.0 30:679.0 31:542.0 32:5.0 33:1.0 36:3.0 39:2.0 41:1.0 47:2.0 48:50.0 49:9.0 51:1.0 52:7.0 54:1.0 55:3.0 56:113.0 57:20.0 59:9.0 60:412.0 61:11.0 62:274.0 63:219.0 64:577.0 65:10.0 66:1.0 67:5.0 68:379.0 69:4.0 70:25.0 71:14.0 72:1.0 76:23.0 77:1.0 78:15.0 79:8.0 80:21.0 81:2.0 84:5.0 88:11.0 92:24.0 94:9.0 95:5.0 96:142.0 97:9.0 99:1.0 100:41.0 102:1.0 103:4.0 104:1.0 108:8.0 110:2.0 111:3.0 112:414.0 113:25.0 114:1.0 115:2.0 116:35.0 118:4.0 119:1.0 120:462.0 121:9.0 122:3.0 123:6.0 124:546.0 125:11.0 126:141.0 127:90.0 128:4.0 129:26.0 131:35.0 132:1.0 133:6.0 134:2.0 135:118.0 141:4.0 143:88.0 144:2.0 145:7.0 147:17.0 149:1.0 151:1.0 152:1.0 153:1.0 155:5.0 157:5.0 159:149.0 163:1.0 167:2.0 175:2.0 176:1.0 177:7.0 179:12.0 180:1.0 183:6.0 184:3.0 185:15.0 187:81.0 188:7.0 189:9.0 190:3.0 191:363.0 192:64.0 193:203.0 194:1.0 195:124.0 196:26.0 197:10.0 198:7.0 199:185.0 200:1.0 203:3.0 204:3.0 205:5.0 207:73.0 208:4.0 209:12.0 211:3.0 215:1.0 216:2.0 217:2.0 219:3.0 220:2.0 221:6.0 222:3.0 223:51.0 224:89.0 225:359.0 227:113.0 228:8.0 229:7.0 230:3.0 231:69.0 232:1.0 235:1.0 236:2.0 238:2.0 239:38.0 240:315.0 241:448.0 243:135.0 244:10.0 245:8.0 246:5.0 247:43.0 248:235.0 249:269.0 250:3.0 251:524.0 252:141.0 253:86.0 254:57.0 255:1161.0 0:224.0 1:145.0 2:1.0 3:24.0 4:234.0 5:20.0 6:36.0 7:303.0 8:4.0 9:2.0 12:38.0 13:4.0 14:49.0 15:255.0 16:143.0 17:53.0 19:8.0 20:35.0 21:7.0 22:8.0 23:21.0 24:34.0 25:11.0 26:1.0 27:7.0 28:271.0 29:33.0 30:200.0 31:409.0 32:4.0 33:5.0 35:1.0 36:4.0 38:1.0 39:3.0 47:3.0 48:49.0 49:4.0 51:1.0 52:10.0 54:3.0 55:9.0 56:49.0 57:13.0 59:1.0 60:201.0 61:9.0 62:111.0 63:152.0 64:326.0 65:27.0 66:1.0 67:5.0 68:241.0 69:2.0 70:15.0 71:35.0 72:1.0 76:19.0 77:1.0 78:8.0 79:9.0 80:32.0 81:4.0 84:4.0 88:10.0 89:1.0 92:38.0 93:2.0 94:10.0 95:8.0 96:75.0 97:9.0 98:2.0 99:2.0 100:32.0 102:4.0 103:10.0 104:1.0 108:5.0 110:3.0 111:4.0 112:496.0 113:34.0 114:4.0 115:11.0 116:63.0 117:3.0 118:9.0 119:24.0 120:299.0 121:14.0 122:1.0 123:4.0 124:602.0 125:7.0 126:160.0 127:178.0 128:2.0 129:32.0 131:15.0 132:4.0 133:4.0 135:182.0 141:7.0 143:137.0 144:4.0 145:7.0 147:5.0 149:3.0 151:9.0 153:2.0 155:1.0 156:7.0 157:15.0 159:158.0 175:1.0 176:3.0 177:4.0 179:3.0 180:1.0 183:2.0 185:5.0 187:18.0 188:3.0 189:5.0 190:2.0 191:201.0 192:44.0 193:291.0 195:148.0 196:15.0 197:39.0 198:2.0 199:376.0 200:2.0 201:3.0 203:1.0 204:2.0 205:10.0 206:2.0 207:129.0 208:5.0 209:43.0 211:6.0 213:2.0 215:8.0 216:2.0 217:10.0 219:2.0 220:11.0 221:20.0 222:1.0 223:159.0 224:96.0 225:236.0 226:1.0 227:96.0 228:10.0 229:15.0 231:156.0 236:3.0 237:3.0 238:4.0 239:86.0 240:620.0 241:683.0 242:2.0 243:180.0 244:9.0 245:16.0 246:3.0 247:162.0 248:228.0 249:252.0 250:1.0 251:244.0 252:224.0 253:209.0 254:98.0 255:1809.0 
2.706203335095362E-8 0:111.0 1:123.0 3:50.0 4:89.0 5:14.0 6:53.0 7:360.0 8:4.0 9:2.0 12:29.0 13:8.0 14:195.0 15:842.0 16:132.0 17:57.0 18:3.0 19:9.0 20:15.0 22:8.0 23:37.0 24:51.0 25:9.0 27:6.0 28:419.0 29:26.0 30:1018.0 31:1394.0 32:1.0 33:2.0 39:4.0 47:2.0 48:38.0 49:12.0 51:3.0 52:1.0 54:1.0 55:8.0 56:60.0 57:6.0 60:218.0 61:5.0 62:256.0 63:209.0 64:86.0 65:10.0 66:1.0 67:5.0 68:38.0 69:2.0 70:5.0 71:21.0 75:1.0 76:4.0 77:1.0 78:8.0 79:11.0 80:17.0 81:1.0 84:2.0 88:6.0 89:1.0 92:13.0 94:11.0 95:9.0 96:36.0 97:8.0 99:2.0 100:9.0 102:2.0 103:5.0 108:1.0 110:4.0 111:4.0 112:310.0 113:17.0 114:1.0 115:8.0 116:21.0 118:2.0 119:8.0 120:175.0 121:6.0 123:4.0 124:310.0 125:6.0 126:142.0 127:125.0 128:3.0 129:47.0 131:62.0 132:1.0 133:1.0 135:230.0 140:2.0 141:2.0 143:236.0 144:3.0 145:9.0 147:5.0 149:1.0 151:9.0 152:1.0 153:1.0 155:1.0 156:2.0 157:2.0 158:1.0 159:147.0 177:1.0 183:4.0 187:3.0 188:2.0 191:42.0 192:40.0 193:355.0 195:275.0 196:5.0 197:12.0 199:359.0 201:4.0 203:2.0 204:4.0 205:7.0 207:153.0 208:9.0 209:23.0 211:2.0 215:4.0 216:2.0 217:9.0 219:3.0 220:6.0 221:6.0 222:6.0 223:113.0 224:87.0 225:417.0 227:188.0 228:1.0 229:8.0 230:3.0 231:149.0 236:1.0 237:2.0 238:1.0 239:73.0 240:425.0 241:631.0 242:1.0 243:158.0 244:7.0 245:9.0 246:2.0 247:110.0 248:174.0 249:120.0 250:1.0 251:44.0 252:134.0 253:97.0 254:67.0 255:980.0 0:55.0 1:71.0 3:19.0 4:48.0 5:6.0 6:12.0 7:180.0 12:17.0 13:4.0 14:27.0 15:130.0 16:66.0 17:33.0 19:3.0 20:4.0 22:1.0 23:8.0 24:6.0 28:343.0 29:17.0 30:108.0 31:479.0 36:2.0 39:1.0 45:1.0 47:1.0 48:11.0 49:3.0 51:1.0 52:2.0 54:1.0 55:3.0 56:24.0 57:2.0 60:134.0 61:2.0 62:55.0 63:98.0 64:85.0 65:1.0 66:1.0 67:1.0 68:20.0 69:1.0 70:2.0 71:9.0 76:4.0 78:1.0 79:4.0 80:3.0 81:1.0 83:1.0 84:2.0 88:1.0 92:12.0 93:1.0 94:3.0 95:9.0 96:31.0 97:4.0 100:5.0 102:1.0 103:2.0 108:1.0 110:1.0 111:1.0 112:458.0 113:20.0 115:2.0 116:10.0 118:1.0 119:11.0 120:147.0 121:3.0 123:1.0 124:733.0 125:6.0 126:121.0 127:246.0 128:2.0 129:26.0 131:25.0 133:1.0 135:99.0 143:71.0 144:3.0 145:3.0 147:3.0 151:5.0 156:1.0 157:1.0 158:1.0 159:52.0 163:1.0 167:1.0 179:2.0 184:1.0 187:1.0 191:17.0 192:40.0 193:502.0 195:248.0 196:6.0 197:20.0 198:2.0 199:424.0 204:1.0 205:2.0 207:73.0 208:3.0 209:21.0 211:2.0 213:1.0 215:10.0 216:3.0 217:3.0 220:1.0 221:7.0 223:102.0 224:124.0 225:792.0 227:334.0 228:7.0 229:15.0 231:198.0 237:2.0 238:1.0 239:38.0 240:565.0 241:1648.0 242:1.0 243:276.0 244:9.0 245:17.0 246:3.0 247:225.0 248:153.0 249:206.0 251:49.0 252:127.0 253:295.0 254:33.0 255:2722.0 0:72.0 1:64.0 3:13.0 4:117.0 5:7.0 6:41.0 7:311.0 8:3.0 9:1.0 12:64.0 13:5.0 14:113.0 15:502.0 16:111.0 17:52.0 18:1.0 19:3.0 20:8.0 21:1.0 22:4.0 23:18.0 24:36.0 25:4.0 27:1.0 28:772.0 29:31.0 30:1008.0 31:1901.0 33:2.0 36:1.0 39:2.0 47:2.0 48:31.0 49:5.0 52:10.0 54:1.0 55:4.0 56:66.0 57:9.0 58:1.0 59:1.0 60:463.0 61:10.0 62:471.0 63:439.0 64:54.0 65:10.0 67:2.0 68:26.0 69:1.0 70:3.0 71:20.0 76:4.0 77:1.0 78:9.0 79:15.0 80:12.0 81:1.0 84:1.0 87:2.0 88:1.0 92:33.0 94:13.0 95:18.0 96:33.0 97:2.0 100:3.0 103:4.0 108:2.0 111:3.0 112:283.0 113:22.0 115:2.0 116:18.0 118:3.0 119:11.0 120:409.0 121:10.0 122:2.0 123:3.0 124:631.0 125:22.0 126:254.0 127:342.0 129:12.0 131:24.0 133:2.0 135:126.0 140:1.0 141:1.0 143:125.0 145:5.0 147:4.0 151:4.0 157:5.0 158:2.0 159:225.0 185:1.0 187:1.0 188:1.0 189:2.0 190:1.0 191:53.0 192:20.0 193:142.0 195:122.0 196:3.0 197:7.0 198:2.0 199:212.0 200:1.0 201:1.0 204:1.0 205:1.0 206:2.0 207:100.0 208:2.0 209:13.0 213:1.0 215:5.0 217:3.0 220:2.0 221:6.0 222:3.0 223:170.0 224:36.0 225:146.0 227:85.0 228:7.0 231:67.0 236:1.0 237:1.0 238:1.0 239:33.0 240:336.0 241:350.0 243:79.0 244:1.0 245:5.0 247:44.0 248:277.0 249:112.0 251:29.0 252:128.0 253:76.0 254:62.0 255:1215.0 0:37.0 1:38.0 3:12.0 4:35.0 5:5.0 6:7.0 7:178.0 12:8.0 13:1.0 14:31.0 15:246.0 16:55.0 17:23.0 19:1.0 20:5.0 21:3.0 23:10.0 24:3.0 28:251.0 29:6.0 30:150.0 31:507.0 32:4.0 39:1.0 47:1.0 48:15.0 49:2.0 55:3.0 56:30.0 57:1.0 60:270.0 61:5.0 62:73.0 63:99.0 64:65.0 65:7.0 67:1.0 68:49.0 71:7.0 76:1.0 78:6.0 79:1.0 80:9.0 81:1.0 83:1.0 84:1.0 88:2.0 92:9.0 93:1.0 94:4.0 95:7.0 96:19.0 97:1.0 99:1.0 100:5.0 111:1.0 112:737.0 113:16.0 115:1.0 116:18.0 118:1.0 119:8.0 120:771.0 121:7.0 122:1.0 124:1839.0 125:19.0 126:157.0 127:173.0 128:1.0 129:9.0 131:14.0 133:3.0 135:121.0 141:1.0 143:75.0 145:2.0 147:3.0 151:2.0 157:1.0 159:56.0 167:2.0 177:2.0 185:1.0 191:13.0 192:18.0 193:298.0 195:85.0 196:2.0 197:16.0 199:517.0 201:1.0 203:1.0 205:4.0 207:83.0 208:3.0 209:11.0 211:5.0 215:5.0 217:1.0 221:2.0 223:129.0 224:57.0 225:238.0 227:71.0 228:3.0 229:6.0 231:109.0 233:1.0 235:1.0 238:1.0 239:22.0 240:712.0 241:997.0 243:124.0 244:6.0 245:8.0 247:213.0 248:405.0 249:248.0 251:29.0 252:298.0 253:366.0 254:24.0 255:2200.0 
-3.6391469264240595E-8 0:403.0 1:191.0 2:5.0 3:58.0 4:256.0 5:20.0 6:129.0 7:330.0 8:5.0 9:3.0 11:2.0 12:75.0 13:7.0 14:224.0 15:515.0 16:162.0 17:95.0 18:1.0 19:27.0 20:10.0 21:2.0 22:4.0 23:32.0 24:34.0 25:11.0 26:2.0 27:16.0 28:202.0 29:13.0 30:384.0 31:718.0 32:3.0 33:8.0 35:2.0 37:1.0 41:1.0 44:2.0 46:3.0 47:2.0 48:45.0 49:19.0 51:1.0 52:11.0 53:1.0 54:2.0 55:9.0 56:38.0 57:20.0 58:1.0 59:8.0 60:111.0 61:6.0 62:91.0 63:138.0 64:307.0 65:13.0 66:1.0 67:7.0 68:105.0 69:1.0 70:32.0 71:28.0 72:2.0 76:17.0 78:41.0 79:8.0 80:14.0 81:2.0 83:2.0 84:1.0 87:1.0 88:5.0 89:2.0 92:20.0 94:13.0 95:10.0 96:77.0 97:8.0 99:3.0 100:19.0 102:2.0 103:6.0 104:1.0 108:6.0 110:12.0 111:4.0 112:291.0 113:24.0 114:6.0 115:4.0 116:20.0 117:1.0 118:4.0 119:11.0 120:135.0 121:4.0 122:1.0 123:4.0 124:231.0 125:9.0 126:120.0 127:67.0 128:5.0 129:70.0 131:39.0 132:4.0 133:9.0 135:159.0 139:1.0 141:1.0 142:2.0 143:196.0 144:7.0 145:18.0 147:23.0 148:1.0 151:10.0 153:5.0 155:10.0 156:2.0 157:7.0 158:1.0 159:238.0 160:1.0 163:5.0 167:2.0 175:5.0 176:2.0 177:18.0 179:11.0 183:3.0 184:1.0 185:6.0 187:39.0 188:3.0 189:3.0 190:3.0 191:230.0 192:98.0 193:254.0 195:123.0 196:16.0 197:27.0 198:12.0 199:257.0 201:1.0 203:2.0 204:1.0 205:5.0 206:17.0 207:156.0 208:11.0 209:34.0 211:7.0 212:1.0 215:6.0 216:6.0 217:3.0 219:1.0 220:5.0 221:10.0 222:7.0 223:78.0 224:210.0 225:544.0 226:1.0 227:139.0 228:32.0 229:10.0 230:12.0 231:122.0 233:4.0 234:1.0 235:4.0 236:7.0 237:3.0 238:21.0 239:130.0 240:580.0 241:851.0 242:2.0 243:177.0 244:17.0 245:20.0 246:5.0 247:96.0 248:189.0 249:187.0 250:4.0 251:235.0 252:116.0 253:87.0 254:114.0 255:1097.0 0:960.0 1:372.0 2:6.0 3:75.0 4:406.0 5:24.0 6:76.0 7:122.0 8:3.0 9:2.0 11:2.0 12:67.0 13:7.0 14:67.0 15:116.0 16:303.0 17:243.0 18:3.0 19:30.0 20:33.0 21:5.0 22:4.0 23:16.0 24:54.0 25:37.0 26:2.0 27:34.0 28:130.0 29:19.0 30:158.0 31:226.0 32:6.0 33:3.0 35:1.0 36:2.0 41:1.0 44:3.0 47:1.0 48:61.0 49:57.0 51:8.0 52:8.0 53:1.0 54:2.0 55:4.0 56:47.0 57:37.0 58:4.0 59:41.0 60:52.0 61:10.0 62:62.0 63:121.0 64:490.0 65:19.0 66:2.0 67:11.0 68:348.0 69:8.0 70:50.0 71:19.0 72:1.0 76:51.0 78:54.0 79:10.0 80:32.0 81:3.0 82:1.0 84:4.0 85:1.0 88:7.0 92:14.0 93:1.0 94:12.0 95:8.0 96:98.0 97:8.0 98:1.0 99:1.0 100:46.0 102:7.0 103:6.0 104:2.0 108:29.0 110:29.0 111:2.0 112:171.0 113:22.0 114:3.0 115:6.0 116:16.0 117:1.0 118:3.0 119:4.0 120:92.0 121:6.0 123:6.0 124:149.0 125:1.0 126:97.0 127:41.0 128:11.0 129:102.0 131:72.0 132:4.0 133:10.0 134:1.0 135:98.0 137:1.0 139:4.0 141:6.0 142:3.0 143:80.0 144:2.0 145:56.0 147:60.0 148:1.0 149:1.0 151:6.0 153:11.0 155:37.0 156:2.0 157:5.0 158:3.0 159:101.0 160:1.0 161:3.0 163:4.0 167:3.0 171:1.0 175:7.0 176:6.0 177:49.0 179:44.0 180:1.0 181:1.0 183:7.0 184:1.0 185:35.0 187:162.0 188:2.0 189:6.0 190:1.0 191:335.0 192:129.0 193:224.0 194:5.0 195:101.0 196:71.0 197:27.0 198:45.0 199:181.0 200:2.0 201:3.0 203:5.0 204:12.0 205:4.0 206:27.0 207:106.0 208:10.0 209:27.0 210:1.0 211:9.0 212:1.0 215:9.0 216:2.0 217:4.0 219:6.0 220:5.0 221:2.0 222:3.0 223:34.0 224:162.0 225:265.0 226:3.0 227:135.0 228:70.0 229:10.0 230:48.0 231:183.0 232:1.0 234:1.0 235:6.0 236:39.0 237:4.0 238:102.0 239:366.0 240:178.0 241:324.0 242:4.0 243:206.0 244:8.0 245:8.0 246:5.0 247:59.0 248:94.0 249:127.0 250:2.0 251:488.0 252:114.0 253:46.0 254:255.0 255:1731.0 0:225.0 1:110.0 2:1.0 3:37.0 4:215.0 5:19.0 6:67.0 7:341.0 8:5.0 9:3.0 12:99.0 13:9.0 14:106.0 15:320.0 16:123.0 17:63.0 19:11.0 20:18.0 21:2.0 22:4.0 23:27.0 24:50.0 25:10.0 26:2.0 27:7.0 28:529.0 29:24.0 30:587.0 31:770.0 32:2.0 35:1.0 36:4.0 37:1.0 38:1.0 39:2.0 46:1.0 47:1.0 48:52.0 49:7.0 50:1.0 51:4.0 52:7.0 54:7.0 55:4.0 56:85.0 57:16.0 58:1.0 59:6.0 60:348.0 61:8.0 62:243.0 63:226.0 64:209.0 65:15.0 66:1.0 67:7.0 68:84.0 69:1.0 70:13.0 71:31.0 72:1.0 76:13.0 78:12.0 79:6.0 80:14.0 81:2.0 83:2.0 84:4.0 87:1.0 88:14.0 89:3.0 91:1.0 92:43.0 93:3.0 94:8.0 95:17.0 96:53.0 97:2.0 99:3.0 100:13.0 102:2.0 103:12.0 104:1.0 105:1.0 108:4.0 110:2.0 111:10.0 112:324.0 113:22.0 114:2.0 115:5.0 116:24.0 117:1.0 118:15.0 119:16.0 120:381.0 121:4.0 123:10.0 124:483.0 125:6.0 126:146.0 127:157.0 128:1.0 129:43.0 131:53.0 132:2.0 133:5.0 134:1.0 135:191.0 137:1.0 141:4.0 143:132.0 145:5.0 147:6.0 149:2.0 151:5.0 153:1.0 155:2.0 156:2.0 157:2.0 158:5.0 159:164.0 161:1.0 163:1.0 167:7.0 175:2.0 176:1.0 177:4.0 179:6.0 181:1.0 183:2.0 185:5.0 187:19.0 188:2.0 189:5.0 190:2.0 191:156.0 192:56.0 193:382.0 195:315.0 196:12.0 197:32.0 198:3.0 199:492.0 201:4.0 203:2.0 204:3.0 205:9.0 206:5.0 207:140.0 208:3.0 209:33.0 211:4.0 212:1.0 213:2.0 214:1.0 215:16.0 216:2.0 217:7.0 219:5.0 220:7.0 221:14.0 222:4.0 223:131.0 224:85.0 225:437.0 227:218.0 228:10.0 229:10.0 230:4.0 231:142.0 233:1.0 235:1.0 236:3.0 237:1.0 238:7.0 239:76.0 240:225.0 241:519.0 242:2.0 243:187.0 244:5.0 245:9.0 246:3.0 247:113.0 248:167.0 249:155.0 251:137.0 252:150.0 253:88.0 254:78.0 255:1197.0 0:638.0 1:199.0 2:6.0 3:60.0 4:279.0 5:25.0 6:94.0 7:212.0 8:6.0 9:1.0 11:1.0 12:85.0 13:4.0 14:89.0 15:164.0 16:280.0 17:124.0 18:1.0 19:22.0 20:18.0 21:3.0 22:8.0 23:12.0 24:61.0 25:21.0 26:1.0 27:9.0 28:145.0 29:11.0 30:98.0 31:202.0 32:9.0 33:3.0 35:2.0 36:9.0 38:1.0 39:2.0 40:1.0 44:1.0 45:1.0 46:3.0 47:3.0 48:138.0 49:45.0 51:7.0 52:9.0 54:1.0 55:5.0 56:156.0 57:60.0 59:28.0 60:189.0 61:14.0 62:82.0 63:130.0 64:457.0 65:20.0 66:6.0 67:5.0 68:211.0 69:3.0 70:29.0 71:19.0 72:2.0 74:1.0 76:41.0 77:1.0 78:21.0 79:7.0 80:33.0 81:3.0 84:2.0 86:2.0 87:1.0 88:6.0 89:2.0 92:13.0 94:8.0 95:5.0 96:152.0 97:4.0 99:5.0 100:68.0 102:11.0 103:4.0 104:1.0 105:1.0 108:45.0 110:17.0 112:439.0 113:29.0 114:3.0 115:7.0 116:36.0 118:8.0 119:9.0 120:444.0 121:15.0 122:3.0 123:5.0 124:311.0 125:10.0 126:91.0 127:38.0 128:9.0 129:72.0 131:99.0 132:5.0 133:18.0 135:244.0 139:1.0 142:2.0 143:147.0 144:4.0 145:33.0 147:25.0 151:5.0 152:1.0 153:11.0 155:16.0 156:2.0 157:6.0 158:1.0 159:114.0 160:1.0 161:3.0 163:2.0 164:1.0 167:3.0 169:1.0 175:1.0 176:3.0 177:22.0 179:21.0 180:1.0 183:13.0 184:1.0 185:33.0 187:91.0 188:1.0 189:9.0 190:2.0 191:284.0 192:104.0 193:237.0 194:1.0 195:228.0 196:40.0 197:19.0 198:14.0 199:256.0 200:2.0 201:4.0 203:3.0 204:9.0 205:6.0 206:14.0 207:106.0 208:9.0 209:18.0 211:11.0 212:1.0 213:1.0 214:2.0 215:5.0 217:10.0 219:3.0 220:6.0 221:10.0 222:1.0 223:50.0 224:138.0 225:243.0 226:1.0 227:134.0 228:45.0 229:6.0 230:13.0 231:128.0 232:2.0 233:3.0 235:3.0 236:25.0 237:7.0 238:53.0 239:187.0 240:288.0 241:340.0 242:2.0 243:181.0 244:11.0 245:3.0 246:3.0 247:57.0 248:273.0 249:258.0 250:7.0 251:429.0 252:239.0 253:90.0 254:260.0 255:1350.0 
-1.0796638537608919E-7 0:283.0 1:185.0 2:7.0 3:84.0 4:136.0 5:23.0 6:76.0 7:355.0 8:5.0 9:5.0 11:1.0 12:72.0 13:9.0 14:176.0 15:874.0 16:180.0 17:62.0 18:3.0 19:23.0 20:8.0 21:1.0 22:9.0 23:25.0 24:69.0 25:21.0 26:1.0 27:4.0 28:272.0 29:17.0 30:445.0 31:524.0 32:5.0 33:2.0 36:3.0 38:2.0 39:1.0 44:1.0 46:1.0 47:2.0 48:79.0 49:17.0 50:1.0 51:4.0 52:8.0 53:1.0 54:7.0 55:4.0 56:88.0 57:9.0 59:7.0 60:166.0 61:1.0 62:187.0 63:132.0 64:133.0 65:17.0 66:3.0 67:8.0 68:37.0 69:2.0 70:10.0 71:20.0 76:18.0 78:18.0 79:6.0 80:21.0 81:1.0 84:3.0 86:2.0 88:8.0 92:15.0 94:19.0 95:8.0 96:75.0 97:10.0 98:4.0 99:5.0 100:14.0 102:3.0 103:3.0 104:1.0 108:5.0 110:9.0 111:9.0 112:362.0 113:23.0 114:3.0 115:5.0 116:21.0 117:2.0 118:5.0 119:12.0 120:319.0 121:2.0 122:1.0 123:5.0 124:248.0 125:1.0 126:137.0 127:65.0 128:6.0 129:81.0 131:69.0 132:4.0 133:10.0 135:297.0 139:1.0 140:2.0 141:3.0 142:1.0 143:249.0 145:14.0 147:10.0 149:1.0 151:11.0 153:2.0 155:2.0 156:1.0 157:10.0 158:1.0 159:152.0 160:1.0 163:1.0 167:2.0 175:5.0 176:1.0 177:4.0 179:3.0 181:1.0 183:4.0 185:4.0 187:8.0 188:2.0 189:6.0 190:3.0 191:97.0 192:62.0 193:320.0 195:182.0 196:16.0 197:14.0 198:5.0 199:262.0 201:3.0 203:2.0 204:5.0 205:6.0 206:4.0 207:175.0 208:16.0 209:19.0 211:9.0 215:4.0 216:3.0 217:5.0 219:1.0 220:5.0 221:3.0 222:4.0 223:58.0 224:221.0 225:748.0 226:1.0 227:239.0 228:7.0 229:14.0 230:3.0 231:117.0 232:1.0 233:5.0 236:3.0 237:9.0 238:14.0 239:114.0 240:669.0 241:736.0 242:4.0 243:151.0 244:14.0 245:7.0 246:8.0 247:52.0 248:284.0 249:163.0 250:1.0 251:112.0 252:155.0 253:79.0 254:148.0 255:744.0 0:275.0 1:147.0 2:2.0 3:40.0 4:210.0 5:28.0 6:62.0 7:323.0 8:1.0 9:1.0 12:63.0 13:3.0 14:58.0 15:220.0 16:145.0 17:53.0 18:2.0 19:9.0 20:27.0 21:1.0 22:6.0 23:29.0 24:40.0 25:5.0 27:3.0 28:279.0 29:26.0 30:159.0 31:458.0 32:3.0 33:3.0 35:1.0 36:6.0 38:1.0 39:5.0 44:1.0 47:3.0 48:47.0 49:10.0 51:1.0 52:5.0 54:4.0 55:11.0 56:53.0 57:7.0 59:2.0 60:179.0 61:8.0 62:113.0 63:150.0 64:263.0 65:22.0 66:5.0 67:9.0 68:100.0 69:7.0 70:14.0 71:39.0 72:3.0 75:1.0 76:7.0 78:7.0 79:11.0 80:15.0 81:3.0 88:7.0 92:32.0 93:1.0 94:9.0 95:11.0 96:77.0 97:2.0 98:1.0 99:4.0 100:17.0 102:2.0 103:8.0 108:1.0 110:3.0 111:4.0 112:364.0 113:36.0 114:8.0 115:10.0 116:39.0 118:10.0 119:23.0 120:245.0 121:9.0 122:2.0 123:5.0 124:421.0 125:8.0 126:140.0 127:154.0 128:7.0 129:49.0 131:71.0 132:3.0 133:11.0 135:249.0 136:1.0 141:2.0 142:1.0 143:139.0 144:4.0 145:16.0 147:13.0 151:5.0 153:4.0 155:7.0 156:5.0 157:12.0 158:1.0 159:194.0 161:1.0 167:2.0 177:6.0 179:6.0 181:2.0 183:5.0 184:2.0 185:5.0 187:14.0 188:3.0 189:5.0 190:3.0 191:153.0 192:80.0 193:422.0 195:302.0 196:21.0 197:37.0 198:4.0 199:548.0 201:4.0 205:10.0 206:1.0 207:166.0 208:10.0 209:26.0 211:14.0 215:10.0 216:5.0 217:9.0 219:8.0 220:7.0 221:19.0 222:5.0 223:172.0 224:166.0 225:367.0 227:164.0 228:14.0 229:11.0 230:7.0 231:196.0 232:1.0 233:5.0 235:1.0 236:1.0 237:3.0 238:4.0 239:88.0 240:549.0 241:622.0 242:2.0 243:233.0 244:11.0 245:9.0 246:3.0 247:187.0 248:206.0 249:196.0 250:2.0 251:204.0 252:164.0 253:153.0 254:86.0 255:1589.0 0:394.0 1:117.0 2:4.0 3:65.0 4:259.0 5:14.0 6:73.0 7:203.0 8:6.0 9:2.0 11:2.0 12:84.0 13:3.0 14:77.0 15:110.0 16:132.0 17:28.0 18:2.0 19:8.0 20:21.0 21:2.0 22:8.0 23:8.0 24:53.0 25:10.0 27:3.0 28:308.0 29:8.0 30:303.0 31:207.0 32:13.0 33:5.0 35:2.0 36:9.0 38:1.0 39:3.0 44:1.0 47:3.0 48:94.0 49:11.0 50:3.0 51:4.0 52:22.0 53:1.0 54:6.0 55:7.0 56:162.0 57:17.0 58:3.0 59:3.0 60:641.0 61:15.0 62:211.0 63:155.0 64:349.0 65:31.0 66:3.0 67:14.0 68:138.0 69:5.0 70:15.0 71:29.0 72:6.0 73:1.0 76:20.0 78:19.0 79:2.0 80:22.0 81:2.0 83:2.0 84:3.0 86:1.0 87:1.0 88:9.0 91:1.0 92:25.0 94:5.0 95:4.0 96:138.0 97:11.0 98:1.0 99:11.0 100:34.0 101:2.0 102:1.0 103:11.0 104:1.0 108:5.0 110:1.0 111:3.0 112:402.0 113:15.0 114:3.0 115:9.0 116:51.0 118:6.0 119:3.0 120:558.0 121:11.0 122:7.0 123:11.0 124:594.0 125:4.0 126:119.0 127:66.0 128:5.0 129:67.0 131:101.0 132:4.0 133:16.0 134:1.0 135:209.0 137:3.0 139:1.0 140:1.0 141:7.0 142:1.0 143:114.0 144:2.0 145:9.0 147:15.0 149:1.0 151:10.0 152:3.0 153:5.0 155:6.0 156:9.0 157:1.0 158:6.0 159:133.0 161:1.0 163:1.0 164:1.0 167:4.0 174:1.0 175:2.0 176:1.0 177:8.0 179:7.0 180:1.0 181:2.0 183:10.0 184:2.0 185:14.0 187:36.0 188:10.0 189:20.0 190:6.0 191:240.0 192:123.0 193:377.0 195:444.0 196:21.0 197:31.0 198:2.0 199:365.0 200:3.0 201:7.0 203:5.0 204:7.0 205:12.0 206:5.0 207:108.0 208:7.0 209:14.0 210:1.0 211:8.0 212:1.0 215:3.0 216:8.0 217:9.0 219:6.0 220:7.0 221:8.0 222:5.0 223:83.0 224:123.0 225:427.0 226:1.0 227:285.0 228:9.0 229:14.0 230:4.0 231:125.0 233:5.0 235:5.0 236:2.0 237:6.0 238:5.0 239:101.0 240:254.0 241:377.0 242:1.0 243:191.0 244:12.0 245:8.0 246:6.0 247:65.0 248:236.0 249:246.0 250:4.0 251:290.0 252:167.0 253:77.0 254:85.0 255:983.0 0:283.0 1:140.0 2:1.0 3:41.0 4:263.0 5:29.0 6:55.0 7:266.0 8:5.0 9:1.0 11:2.0 12:57.0 13:11.0 14:55.0 15:171.0 16:165.0 17:48.0 18:1.0 19:7.0 20:32.0 21:2.0 22:11.0 23:20.0 24:63.0 25:11.0 26:1.0 27:2.0 28:324.0 29:24.0 30:177.0 31:362.0 32:6.0 33:3.0 36:4.0 39:6.0 46:1.0 47:3.0 48:59.0 49:9.0 51:4.0 52:16.0 54:5.0 55:11.0 56:109.0 57:14.0 58:1.0 59:5.0 60:334.0 61:10.0 62:137.0 63:196.0 64:332.0 65:21.0 66:5.0 67:10.0 68:153.0 69:7.0 70:15.0 71:37.0 72:4.0 73:1.0 76:15.0 77:2.0 78:12.0 79:5.0 80:30.0 81:3.0 82:1.0 83:1.0 84:3.0 88:15.0 92:40.0 94:13.0 95:10.0 96:114.0 97:7.0 98:1.0 99:5.0 100:23.0 101:2.0 102:8.0 103:9.0 104:1.0 108:7.0 110:6.0 111:1.0 112:477.0 113:26.0 114:1.0 115:6.0 116:55.0 118:11.0 119:23.0 120:458.0 121:19.0 122:2.0 123:7.0 124:678.0 125:21.0 126:181.0 127:151.0 128:2.0 129:53.0 130:1.0 131:63.0 132:3.0 133:16.0 135:216.0 139:1.0 140:1.0 141:6.0 143:107.0 144:2.0 145:15.0 147:12.0 149:1.0 151:6.0 152:1.0 153:2.0 155:6.0 156:7.0 157:11.0 158:3.0 159:166.0 163:2.0 167:2.0 175:2.0 177:5.0 179:3.0 181:1.0 183:7.0 185:8.0 187:12.0 188:10.0 189:14.0 191:152.0 192:83.0 193:309.0 195:219.0 196:23.0 197:34.0 198:2.0 199:422.0 200:1.0 201:5.0 203:2.0 204:5.0 205:17.0 206:2.0 207:158.0 208:7.0 209:21.0 211:13.0 213:3.0 215:7.0 216:8.0 217:14.0 219:6.0 220:14.0 221:20.0 222:6.0 223:118.0 224:80.0 225:218.0 226:1.0 227:169.0 228:10.0 229:17.0 230:3.0 231:168.0 233:2.0 235:1.0 236:2.0 237:7.0 238:5.0 239:98.0 240:260.0 241:390.0 242:1.0 243:240.0 244:5.0 245:11.0 246:4.0 247:124.0 248:266.0 249:263.0 250:1.0 251:238.0 252:205.0 253:188.0 254:120.0 255:1556.0 
3.096530340192714E-7 0:285.0 1:264.0 2:5.0 3:77.0 4:73.0 5:27.0 6:50.0 7:380.0 8:14.0 9:8.0 11:3.0 12:54.0 13:17.0 14:142.0 15:974.0 16:293.0 17:87.0 18:4.0 19:15.0 20:14.0 21:1.0 22:6.0 23:19.0 24:106.0 25:13.0 26:2.0 27:2.0 28:242.0 29:35.0 30:422.0 31:577.0 32:6.0 33:2.0 35:2.0 36:4.0 38:2.0 39:2.0 46:2.0 47:10.0 48:97.0 49:13.0 50:2.0 51:3.0 52:4.0 54:5.0 55:3.0 56:59.0 57:4.0 59:5.0 60:107.0 61:4.0 62:141.0 63:104.0 64:66.0 65:12.0 66:3.0 67:6.0 68:24.0 69:1.0 70:10.0 71:15.0 72:2.0 76:5.0 77:1.0 78:11.0 79:12.0 80:38.0 81:3.0 83:1.0 88:5.0 91:2.0 92:15.0 94:4.0 95:5.0 96:40.0 97:16.0 98:2.0 99:6.0 100:5.0 102:2.0 103:8.0 105:1.0 108:6.0 109:1.0 110:11.0 111:10.0 112:367.0 113:28.0 114:3.0 115:3.0 116:12.0 118:5.0 119:8.0 120:187.0 121:10.0 122:3.0 124:291.0 125:4.0 126:165.0 127:95.0 128:13.0 129:97.0 131:73.0 132:1.0 133:2.0 135:238.0 137:2.0 139:1.0 141:4.0 142:1.0 143:248.0 144:5.0 145:10.0 146:1.0 147:5.0 148:1.0 151:5.0 152:2.0 153:8.0 155:3.0 156:6.0 157:8.0 158:3.0 159:106.0 161:1.0 167:1.0 175:4.0 176:1.0 177:6.0 179:4.0 183:2.0 185:4.0 187:3.0 188:1.0 190:3.0 191:59.0 192:57.0 193:286.0 195:110.0 196:7.0 197:13.0 198:1.0 199:235.0 200:4.0 201:5.0 204:1.0 205:17.0 206:6.0 207:166.0 208:22.0 209:31.0 211:7.0 215:6.0 216:4.0 217:9.0 219:1.0 220:7.0 221:6.0 222:5.0 223:79.0 224:189.0 225:602.0 226:2.0 227:161.0 228:8.0 229:4.0 230:4.0 231:164.0 232:2.0 233:6.0 236:5.0 237:8.0 238:12.0 239:218.0 240:821.0 241:748.0 242:9.0 243:136.0 244:8.0 245:8.0 246:10.0 247:95.0 248:243.0 249:146.0 250:5.0 251:45.0 252:190.0 253:107.0 254:269.0 255:892.0 0:107.0 1:175.0 3:22.0 4:45.0 5:12.0 6:20.0 7:491.0 9:2.0 11:2.0 12:20.0 13:6.0 14:39.0 15:383.0 16:89.0 17:61.0 19:2.0 20:6.0 21:1.0 22:4.0 23:28.0 24:24.0 25:3.0 28:165.0 29:11.0 30:132.0 31:580.0 32:1.0 33:3.0 39:2.0 41:1.0 47:2.0 48:28.0 49:7.0 51:2.0 52:3.0 53:1.0 54:2.0 55:3.0 56:24.0 57:1.0 60:69.0 61:3.0 62:45.0 63:70.0 64:61.0 65:5.0 66:2.0 67:3.0 68:32.0 69:1.0 70:1.0 71:17.0 72:1.0 76:4.0 78:7.0 79:7.0 80:15.0 81:3.0 83:1.0 84:1.0 87:2.0 88:1.0 92:13.0 93:2.0 94:4.0 95:8.0 96:21.0 97:2.0 99:2.0 100:7.0 101:1.0 102:1.0 103:5.0 110:4.0 111:2.0 112:293.0 113:13.0 114:1.0 115:5.0 116:15.0 118:4.0 119:10.0 120:106.0 121:2.0 124:250.0 125:5.0 126:87.0 127:102.0 128:5.0 129:42.0 131:60.0 133:5.0 135:258.0 140:1.0 143:170.0 144:3.0 145:12.0 147:10.0 149:1.0 151:8.0 153:1.0 156:1.0 157:5.0 158:1.0 159:143.0 167:2.0 176:1.0 177:2.0 183:1.0 184:1.0 185:1.0 187:1.0 191:46.0 192:31.0 193:526.0 195:208.0 196:3.0 197:25.0 198:1.0 199:836.0 200:1.0 201:2.0 203:1.0 204:1.0 205:2.0 206:1.0 207:174.0 208:7.0 209:30.0 211:7.0 213:1.0 214:1.0 215:22.0 216:1.0 219:1.0 220:4.0 221:13.0 222:1.0 223:277.0 224:110.0 225:405.0 227:180.0 228:4.0 229:5.0 230:2.0 231:187.0 233:1.0 236:2.0 237:1.0 238:2.0 239:62.0 240:656.0 241:1049.0 243:204.0 244:6.0 245:6.0 246:6.0 247:325.0 248:113.0 249:121.0 250:2.0 251:40.0 252:104.0 253:169.0 254:59.0 255:2967.0 0:171.0 1:138.0 2:8.0 3:36.0 4:118.0 5:8.0 6:39.0 7:233.0 8:5.0 12:49.0 13:4.0 14:76.0 15:190.0 16:137.0 17:42.0 18:2.0 19:9.0 20:16.0 21:1.0 22:12.0 23:10.0 24:48.0 25:7.0 26:1.0 27:3.0 28:344.0 29:23.0 30:438.0 31:492.0 32:10.0 33:3.0 34:1.0 36:5.0 37:1.0 39:3.0 44:1.0 48:62.0 49:6.0 51:5.0 52:14.0 54:2.0 55:4.0 56:109.0 57:10.0 58:2.0 59:1.0 60:508.0 61:7.0 62:192.0 63:139.0 64:127.0 65:22.0 66:1.0 67:7.0 68:38.0 70:3.0 71:17.0 72:2.0 76:16.0 78:9.0 79:7.0 80:9.0 81:1.0 84:2.0 88:4.0 92:23.0 93:1.0 94:5.0 95:7.0 96:52.0 97:13.0 98:1.0 99:3.0 100:9.0 102:1.0 103:6.0 104:1.0 108:1.0 109:1.0 110:3.0 111:4.0 112:375.0 113:20.0 114:3.0 115:5.0 116:24.0 118:6.0 119:8.0 120:601.0 121:1.0 122:1.0 123:2.0 124:1044.0 125:7.0 126:139.0 127:110.0 129:32.0 131:52.0 133:2.0 135:165.0 139:1.0 140:1.0 143:125.0 144:2.0 145:6.0 147:4.0 148:1.0 149:2.0 151:6.0 155:3.0 156:5.0 157:6.0 158:7.0 159:136.0 161:1.0 167:1.0 179:2.0 183:3.0 185:1.0 187:2.0 190:6.0 191:98.0 192:34.0 193:348.0 194:1.0 195:308.0 196:3.0 197:11.0 198:2.0 199:412.0 200:1.0 201:1.0 203:5.0 204:2.0 205:7.0 206:2.0 207:151.0 208:4.0 209:18.0 211:4.0 213:2.0 215:6.0 216:1.0 217:6.0 218:1.0 219:4.0 220:1.0 221:6.0 222:3.0 223:126.0 224:86.0 225:513.0 227:199.0 228:8.0 229:6.0 230:2.0 231:134.0 232:1.0 233:4.0 235:1.0 236:1.0 237:1.0 238:7.0 239:85.0 240:337.0 241:573.0 242:1.0 243:145.0 244:5.0 245:7.0 246:1.0 247:139.0 248:207.0 249:172.0 250:1.0 251:71.0 252:190.0 253:155.0 254:87.0 255:1806.0 0:103.0 1:87.0 2:1.0 3:22.0 4:82.0 5:12.0 6:20.0 7:307.0 8:1.0 9:1.0 12:16.0 13:1.0 14:35.0 15:168.0 16:115.0 17:34.0 18:1.0 19:8.0 20:11.0 21:3.0 22:3.0 23:22.0 24:24.0 25:4.0 27:1.0 28:311.0 29:24.0 30:144.0 31:417.0 32:1.0 38:1.0 39:1.0 47:1.0 48:37.0 49:8.0 52:8.0 54:1.0 55:4.0 56:66.0 57:5.0 60:287.0 61:6.0 62:109.0 63:112.0 64:99.0 65:11.0 67:2.0 68:42.0 69:1.0 70:7.0 71:13.0 76:5.0 77:1.0 78:4.0 79:7.0 80:10.0 88:6.0 92:23.0 93:1.0 94:3.0 95:12.0 96:19.0 97:4.0 99:5.0 100:6.0 103:8.0 108:1.0 110:2.0 111:2.0 112:584.0 113:30.0 114:3.0 115:5.0 116:29.0 117:1.0 118:5.0 119:10.0 120:576.0 121:16.0 122:1.0 123:1.0 124:1245.0 125:13.0 126:185.0 127:194.0 129:22.0 131:30.0 133:2.0 135:211.0 139:1.0 141:2.0 142:1.0 143:124.0 145:5.0 147:10.0 151:1.0 155:1.0 156:4.0 157:6.0 159:124.0 167:4.0 177:2.0 183:2.0 185:1.0 188:4.0 189:3.0 190:1.0 191:43.0 192:21.0 193:335.0 195:100.0 196:4.0 197:23.0 199:508.0 200:1.0 201:2.0 204:1.0 205:7.0 206:1.0 207:136.0 208:5.0 209:19.0 211:1.0 213:1.0 215:12.0 216:1.0 217:5.0 220:6.0 221:10.0 223:206.0 224:66.0 225:186.0 226:2.0 227:78.0 228:10.0 230:1.0 231:110.0 232:1.0 233:1.0 237:2.0 238:4.0 239:45.0 240:374.0 241:761.0 243:117.0 244:5.0 245:12.0 246:3.0 247:240.0 248:278.0 249:216.0 250:1.0 251:56.0 252:329.0 253:381.0 254:59.0 255:2525.0 
6.988474982039504E-8 0:63.0 1:110.0 2:2.0 3:49.0 4:69.0 5:13.0 6:51.0 7:791.0 8:1.0 9:2.0 11:1.0 12:16.0 13:2.0 14:115.0 15:1084.0 16:63.0 17:66.0 18:3.0 19:9.0 20:10.0 21:1.0 22:2.0 23:27.0 24:14.0 25:7.0 27:3.0 28:135.0 29:19.0 30:230.0 31:815.0 33:2.0 39:1.0 48:5.0 49:2.0 51:2.0 55:1.0 56:14.0 57:5.0 59:1.0 60:68.0 61:2.0 62:61.0 63:60.0 64:73.0 65:8.0 67:3.0 68:35.0 70:4.0 71:25.0 76:2.0 78:1.0 79:8.0 80:8.0 81:1.0 83:1.0 84:1.0 87:2.0 88:3.0 92:8.0 93:1.0 94:5.0 95:7.0 96:14.0 98:1.0 100:2.0 101:1.0 102:1.0 103:2.0 108:1.0 110:1.0 112:133.0 113:14.0 114:1.0 115:1.0 116:12.0 118:1.0 119:7.0 120:86.0 121:3.0 123:1.0 124:240.0 125:1.0 126:58.0 127:75.0 129:23.0 130:1.0 131:99.0 133:8.0 135:901.0 142:1.0 143:558.0 145:5.0 147:9.0 151:7.0 153:1.0 155:2.0 156:1.0 157:4.0 158:1.0 159:243.0 175:1.0 177:1.0 179:1.0 183:1.0 187:4.0 191:59.0 192:22.0 193:469.0 195:326.0 196:3.0 197:15.0 198:2.0 199:1019.0 201:3.0 203:1.0 204:2.0 206:2.0 207:239.0 208:6.0 209:24.0 211:2.0 215:20.0 216:1.0 217:4.0 220:1.0 221:2.0 222:2.0 223:169.0 224:43.0 225:274.0 227:146.0 228:3.0 229:4.0 231:160.0 236:1.0 237:1.0 238:2.0 239:67.0 240:266.0 241:855.0 242:1.0 243:156.0 244:5.0 245:7.0 246:1.0 247:315.0 248:52.0 249:78.0 251:27.0 252:56.0 253:79.0 254:43.0 255:1700.0 0:67.0 1:100.0 2:4.0 3:54.0 4:84.0 5:7.0 6:39.0 7:570.0 8:1.0 12:16.0 13:3.0 14:44.0 15:634.0 16:38.0 17:32.0 18:1.0 19:7.0 20:5.0 22:1.0 23:27.0 24:13.0 25:1.0 26:1.0 28:122.0 29:7.0 30:138.0 31:465.0 33:2.0 39:3.0 48:12.0 49:7.0 52:2.0 54:3.0 55:2.0 56:14.0 57:2.0 60:89.0 62:61.0 63:69.0 64:89.0 65:8.0 66:1.0 67:2.0 68:35.0 69:1.0 70:8.0 71:18.0 76:2.0 78:5.0 79:8.0 80:5.0 84:3.0 86:1.0 87:2.0 88:3.0 92:5.0 94:1.0 95:8.0 96:28.0 97:4.0 99:2.0 100:7.0 102:1.0 103:2.0 104:1.0 111:1.0 112:220.0 113:19.0 115:4.0 116:8.0 118:3.0 119:5.0 120:104.0 121:2.0 123:1.0 124:248.0 125:1.0 126:51.0 127:72.0 128:2.0 129:48.0 131:94.0 133:4.0 135:914.0 141:2.0 142:1.0 143:574.0 145:2.0 146:1.0 147:10.0 151:7.0 153:3.0 159:250.0 161:1.0 175:1.0 177:2.0 179:1.0 183:2.0 185:1.0 188:1.0 189:1.0 191:53.0 192:33.0 193:450.0 195:454.0 196:7.0 197:15.0 198:3.0 199:817.0 201:3.0 204:1.0 205:3.0 206:2.0 207:217.0 208:2.0 209:22.0 211:6.0 215:19.0 216:2.0 217:3.0 220:2.0 221:5.0 222:2.0 223:148.0 224:92.0 225:804.0 226:1.0 227:300.0 228:2.0 229:9.0 231:176.0 232:1.0 237:1.0 238:1.0 239:49.0 240:599.0 241:1378.0 243:184.0 244:6.0 245:13.0 246:1.0 247:151.0 248:122.0 249:128.0 251:56.0 252:89.0 253:123.0 254:22.0 255:1337.0 0:73.0 1:78.0 3:7.0 4:83.0 5:10.0 6:10.0 7:238.0 8:1.0 9:1.0 12:25.0 13:1.0 14:62.0 15:407.0 16:111.0 17:73.0 19:5.0 20:5.0 22:2.0 23:22.0 24:30.0 25:6.0 28:440.0 29:26.0 30:591.0 31:1475.0 32:3.0 33:1.0 39:2.0 47:1.0 48:22.0 49:12.0 52:2.0 56:34.0 57:1.0 59:1.0 60:182.0 61:4.0 62:145.0 63:187.0 64:93.0 65:3.0 68:36.0 69:2.0 70:3.0 71:10.0 72:1.0 76:4.0 78:7.0 79:3.0 80:13.0 84:3.0 88:3.0 89:1.0 90:1.0 92:15.0 94:3.0 95:14.0 96:28.0 97:3.0 100:2.0 103:2.0 104:1.0 108:1.0 110:3.0 111:1.0 112:437.0 113:19.0 114:1.0 115:1.0 116:11.0 117:1.0 119:3.0 120:541.0 121:5.0 122:1.0 124:687.0 125:10.0 126:124.0 127:249.0 129:7.0 131:21.0 133:4.0 135:181.0 140:1.0 142:1.0 143:80.0 145:3.0 147:1.0 151:1.0 155:1.0 157:3.0 159:123.0 163:1.0 167:1.0 177:1.0 183:2.0 184:1.0 185:1.0 189:2.0 190:1.0 191:46.0 192:20.0 193:167.0 195:103.0 196:5.0 197:14.0 198:1.0 199:328.0 201:1.0 205:1.0 207:61.0 208:4.0 209:10.0 211:2.0 215:6.0 217:5.0 219:1.0 220:1.0 221:5.0 222:1.0 223:153.0 224:59.0 225:233.0 227:55.0 228:6.0 229:4.0 231:61.0 233:3.0 235:1.0 236:1.0 237:2.0 238:5.0 239:46.0 240:627.0 241:710.0 243:68.0 244:6.0 245:9.0 247:110.0 248:261.0 249:168.0 251:71.0 252:138.0 253:194.0 254:52.0 255:2585.0 0:38.0 1:39.0 3:12.0 4:68.0 5:6.0 6:30.0 7:585.0 8:3.0 12:24.0 13:4.0 14:63.0 15:1260.0 16:36.0 17:16.0 19:3.0 20:7.0 22:1.0 23:9.0 24:18.0 25:1.0 27:1.0 28:329.0 29:12.0 30:619.0 31:965.0 36:1.0 39:1.0 47:1.0 48:11.0 49:3.0 52:1.0 55:4.0 56:34.0 57:1.0 58:1.0 59:1.0 60:288.0 61:6.0 62:252.0 63:172.0 64:59.0 65:1.0 67:1.0 68:19.0 69:2.0 70:2.0 71:13.0 76:5.0 78:2.0 79:7.0 80:11.0 84:1.0 88:3.0 92:12.0 93:1.0 94:6.0 95:15.0 96:32.0 97:1.0 98:1.0 100:4.0 103:2.0 108:2.0 111:1.0 112:354.0 113:12.0 114:1.0 115:1.0 116:10.0 119:3.0 120:561.0 121:6.0 122:2.0 123:3.0 124:544.0 125:6.0 126:123.0 127:172.0 128:1.0 129:4.0 131:31.0 133:6.0 135:761.0 139:1.0 141:2.0 143:582.0 151:7.0 156:3.0 157:1.0 159:199.0 167:1.0 183:2.0 185:1.0 187:1.0 188:1.0 189:2.0 191:39.0 192:19.0 193:165.0 195:164.0 196:3.0 197:9.0 198:1.0 199:508.0 205:2.0 207:111.0 209:10.0 211:2.0 212:1.0 213:1.0 215:7.0 217:2.0 219:1.0 221:1.0 222:2.0 223:142.0 224:68.0 225:119.0 227:64.0 228:1.0 229:3.0 231:79.0 239:15.0 240:848.0 241:631.0 243:77.0 244:7.0 245:5.0 247:111.0 248:271.0 249:125.0 251:46.0 252:108.0 253:112.0 254:19.0 255:1257.0 
